~o
<STREAMINFO> 1 39
<VECSIZE> 39<NULLD><MFCC_E_D_A><DIAGC>
~h "eight"
<BEGINHMM>
<NUMSTATES> 5
<STATE> 2
<MEAN> 39
 -6.595516e+00 -5.287679e+00 1.173006e+01 -1.069500e+01 -1.464805e+01 -8.221482e+00 -5.914371e+00 -1.025983e+01 -4.880073e+00 -3.104186e+00 -3.218181e+00 -1.908858e+00 5.989166e-01 8.366197e-02 2.483533e-01 2.330278e-01 1.597592e-01 -1.803809e-01 8.630284e-03 -3.169567e-01 -3.029642e-01 -1.433192e-01 -9.169502e-02 6.157352e-03 6.595398e-02 6.583046e-03 -4.269236e-02 4.208583e-02 -1.177161e-01 8.504570e-02 1.028893e-01 4.716399e-02 6.635934e-03 3.170696e-02 7.484320e-03 -6.659675e-02 4.713992e-02 -7.662408e-03 -5.002263e-03
<VARIANCE> 39
 1.062313e+01 5.979502e+01 5.524526e+01 1.270192e+02 6.133430e+01 7.926429e+01 7.921346e+01 9.043819e+01 8.754959e+01 8.823698e+01 1.073520e+02 4.299487e+01 5.588716e-02 6.800734e-01 2.073939e+00 2.327806e+00 2.964180e+00 3.797774e+00 2.328909e+00 2.647071e+00 2.658927e+00 2.836625e+00 2.771027e+00 2.334158e+00 2.140769e+00 4.051450e-03 1.464384e-01 3.105002e-01 2.798377e-01 4.117946e-01 5.644955e-01 4.155542e-01 4.360288e-01 4.101132e-01 4.671749e-01 5.112444e-01 3.481894e-01 4.200553e-01 3.444881e-04
<GCONST> 1.036762e+02
<STATE> 3
<MEAN> 39
 -1.629347e+01 1.148848e+00 -2.974733e+00 -6.640285e-01 -4.878983e+00 -6.921472e+00 -4.104288e+00 -9.306115e+00 -6.034070e+00 -4.334758e+00 -3.541020e-01 -2.559424e+00 2.685452e-01 -1.453084e+00 2.417410e-01 -1.315615e+00 4.279745e-01 8.081712e-01 8.354613e-02 9.645180e-01 5.510779e-01 3.297004e-01 8.074833e-02 2.677273e-01 -1.398364e-01 4.075408e-03 1.115692e-01 -5.297060e-02 1.999687e-01 -1.255867e-01 -1.268032e-01 3.986500e-02 -4.551321e-02 2.994169e-02 1.304234e-02 7.954438e-02 -3.789975e-02 2.703817e-02 3.485238e-03
<VARIANCE> 39
 7.638854e+01 3.859118e+01 6.869235e+01 4.136829e+01 3.398167e+01 3.067189e+01 3.869006e+01 2.432567e+01 2.522159e+01 2.454150e+01 3.858459e+01 2.017583e+01 4.955287e-02 5.447260e+00 4.060362e+00 4.201462e+00 4.153906e+00 2.837689e+00 2.815915e+00 2.557259e+00 1.901889e+00 2.419061e+00 2.562406e+00 2.462203e+00 2.544521e+00 5.662935e-03 9.527799e-01 8.056020e-01 6.112661e-01 7.797647e-01 4.825414e-01 5.440070e-01 4.889949e-01 3.505638e-01 4.767604e-01 5.316091e-01 4.432498e-01 5.165935e-01 8.737740e-04
<GCONST> 1.056006e+02
<STATE> 4
<MEAN> 39
 -1.694932e+01 -6.220197e-01 -6.057844e+00 1.155898e-02 -1.730314e+00 -5.019551e+00 -2.710249e-02 -4.068959e+00 -3.444342e+00 -6.311430e+00 9.188503e-02 -2.376708e+00 2.045826e-01 6.964592e-01 -3.665752e-01 2.316559e-01 -1.780415e-01 1.105494e-01 1.720584e-01 -2.215272e-01 1.420264e-01 2.263726e-02 -1.941469e-01 -3.331378e-02 2.008894e-03 -2.456841e-02 -8.924514e-03 3.322633e-02 7.328726e-03 2.486578e-02 -9.913893e-03 -8.552943e-03 -2.336400e-02 -4.738958e-02 -2.374174e-02 3.272531e-03 2.353186e-03 -3.709632e-03 9.149520e-04
<VARIANCE> 39
 5.088359e+01 1.913004e+01 4.399909e+01 2.435149e+01 4.149387e+01 2.146080e+01 4.086837e+01 2.983682e+01 1.890156e+01 2.564689e+01 2.714056e+01 1.515851e+01 6.180933e-02 5.847011e-01 9.435099e-01 9.812712e-01 1.015465e+00 1.448082e+00 1.757405e+00 1.806873e+00 1.861223e+00 1.793323e+00 2.046088e+00 1.570877e+00 1.579239e+00 5.107829e-04 7.459867e-02 1.402986e-01 1.504151e-01 1.720578e-01 2.828439e-01 2.986106e-01 3.463063e-01 3.473966e-01 3.622063e-01 4.033131e-01 2.991587e-01 3.310649e-01 5.707981e-05
<GCONST> 7.821982e+01
<TRANSP> 5
 0.000000e+00 1.000000e+00 0.000000e+00 0.000000e+00 0.000000e+00
 0.000000e+00 9.656695e-01 3.433048e-02 0.000000e+00 0.000000e+00
 0.000000e+00 0.000000e+00 9.086847e-01 9.131530e-02 0.000000e+00
 0.000000e+00 0.000000e+00 0.000000e+00 9.390475e-01 6.095249e-02
 0.000000e+00 0.000000e+00 0.000000e+00 0.000000e+00 0.000000e+00
<ENDHMM>
