~o
<STREAMINFO> 1 39
<VECSIZE> 39<NULLD><MFCC_E_D_A><DIAGC>
~h "five"
<BEGINHMM>
<NUMSTATES> 5
<STATE> 2
<MEAN> 39
 -1.642599e+01 -7.270260e+00 -6.816121e+00 2.094565e-01 -2.693453e+00 -3.504730e+00 -3.337300e+00 -4.967848e+00 -2.974318e+00 -3.887171e+00 -3.182178e+00 -3.895728e+00 3.222426e-01 6.370217e-01 -5.967916e-01 -3.980748e-01 -9.371844e-01 1.132277e-01 2.236312e-01 1.942437e-01 -3.224220e-01 7.507596e-02 6.605434e-02 -4.170980e-01 -2.332097e-01 4.478566e-02 4.854936e-02 -6.669774e-02 3.782567e-02 -7.411206e-02 8.321497e-02 4.646659e-02 8.812134e-03 -1.314381e-03 -3.461764e-02 -5.550670e-02 -3.386720e-02 2.597996e-02 -9.264627e-04
<VARIANCE> 39
 9.941261e+01 3.169459e+01 3.916795e+01 8.697594e+01 3.378074e+01 5.698148e+01 2.338021e+01 4.179612e+01 2.443143e+01 2.438864e+01 4.863533e+01 2.532905e+01 8.562565e-02 7.260415e+00 1.811699e+00 1.771227e+00 6.439773e+00 3.137451e+00 3.700109e+00 2.263857e+00 2.648873e+00 2.139641e+00 2.230799e+00 3.012449e+00 2.255658e+00 3.336915e-03 1.094702e+00 2.559265e-01 3.470922e-01 1.050751e+00 5.446350e-01 5.916515e-01 4.167553e-01 4.754408e-01 4.201005e-01 4.250531e-01 5.571590e-01 4.285708e-01 5.648249e-04
<GCONST> 1.047260e+02
<STATE> 3
<MEAN> 39
 -2.328624e+00 -1.666420e+01 -5.189735e+00 -1.115679e+01 -2.330386e+00 -5.656939e+00 1.187046e+00 -6.828294e+00 -2.219966e+00 -5.180908e+00 -1.007739e+01 -5.000067e+00 7.563717e-01 -3.338970e-02 3.037933e-01 7.271208e-01 5.013444e-01 -4.733979e-01 -6.667738e-01 7.965845e-03 8.596031e-02 -5.633272e-02 -1.054023e-01 2.249147e-01 2.674248e-01 -1.147110e-02 1.190081e-02 1.060737e-01 -1.647382e-02 6.421348e-02 -3.025489e-02 1.064599e-03 -7.462767e-02 -2.714062e-02 -1.302837e-02 1.446425e-02 3.398769e-02 -5.230243e-02 -1.915439e-03
<VARIANCE> 39
 7.190535e+00 2.245635e+01 6.914020e+01 5.547163e+01 8.872199e+01 1.774961e+02 6.251361e+01 8.099189e+01 9.627740e+01 3.450144e+01 8.362601e+01 4.816325e+01 1.313038e-02 1.915498e-01 8.024054e-01 9.822427e-01 1.155922e+00 2.239393e+00 2.036256e+00 2.095777e+00 2.806270e+00 1.726626e+00 1.544236e+00 1.807550e+00 1.402983e+00 1.258309e-04 3.152565e-02 8.912135e-02 1.307503e-01 1.655965e-01 2.699106e-01 3.033770e-01 3.448384e-01 3.788619e-01 2.564630e-01 2.602308e-01 3.225225e-01 2.385036e-01 2.723313e-05
<GCONST> 7.973004e+01
<STATE> 4
<MEAN> 39
 -9.930696e+00 -5.146177e+00 -1.620204e+00 2.085847e-01 -5.645140e+00 -6.272387e+00 -3.494566e+00 -4.163757e+00 -3.890894e+00 -6.952612e+00 -2.902341e+00 -3.386235e+00 1.991983e-01 -4.123089e-01 2.154545e-01 -4.438207e-01 8.680677e-02 4.806314e-01 5.616943e-01 -1.046404e-01 2.017181e-01 -3.640173e-02 -1.578503e-02 1.146063e-01 -8.247747e-02 -2.912593e-02 -5.454072e-03 -5.134372e-02 9.750649e-03 -7.015099e-02 -2.323145e-02 -3.164916e-02 4.863866e-02 2.911744e-02 1.245952e-02 2.247829e-02 1.232292e-02 2.346878e-02 1.203055e-03
<VARIANCE> 39
 3.836862e+01 1.432390e+01 4.191999e+01 3.358896e+01 3.393733e+01 4.397713e+01 2.678735e+01 3.478336e+01 2.390410e+01 2.375443e+01 2.720433e+01 1.526963e+01 4.226164e-02 1.274311e+00 9.107957e-01 1.544359e+00 1.923828e+00 1.492819e+00 2.359950e+00 2.413985e+00 2.900063e+00 1.991480e+00 2.431824e+00 1.878631e+00 1.767183e+00 8.078202e-04 1.552054e-01 1.384838e-01 2.480028e-01 2.758528e-01 2.812775e-01 3.756083e-01 4.279396e-01 5.802240e-01 3.902719e-01 4.424832e-01 3.275507e-01 3.368593e-01 1.058239e-04
<GCONST> 8.541115e+01
<TRANSP> 5
 0.000000e+00 1.000000e+00 0.000000e+00 0.000000e+00 0.000000e+00
 0.000000e+00 9.482448e-01 5.175527e-02 0.000000e+00 0.000000e+00
 0.000000e+00 0.000000e+00 9.581726e-01 4.182743e-02 0.000000e+00
 0.000000e+00 0.000000e+00 0.000000e+00 9.528283e-01 4.717174e-02
 0.000000e+00 0.000000e+00 0.000000e+00 0.000000e+00 0.000000e+00
<ENDHMM>
