~o
<STREAMINFO> 1 39
<VECSIZE> 39<NULLD><MFCC_E_D_A><DIAGC>
~h "four"
<BEGINHMM>
<NUMSTATES> 5
<STATE> 2
<MEAN> 39
 -1.624953e+01 -5.140605e+00 -7.197117e+00 1.424744e-01 -4.762743e+00 -3.185510e+00 -4.487330e+00 -4.992659e+00 -4.830798e+00 -3.650265e+00 -1.950901e+00 -3.412896e+00 2.931636e-01 7.239033e-01 2.536419e-01 -2.539903e-01 -9.532731e-01 -6.381277e-01 2.394893e-01 1.447227e-01 -2.008192e-01 -2.159397e-01 9.070389e-02 -1.584139e-01 2.342673e-02 4.074005e-02 8.107705e-02 -5.510950e-03 3.256030e-02 -1.330388e-01 1.385310e-03 3.910382e-02 2.617325e-02 6.555384e-03 1.790627e-02 -1.556265e-02 -4.665393e-03 -1.768264e-02 1.022988e-04
<VARIANCE> 39
 9.880683e+01 2.338516e+01 3.188108e+01 8.907433e+01 5.593480e+01 3.348367e+01 2.661871e+01 3.574212e+01 4.964333e+01 2.901400e+01 2.582898e+01 1.950468e+01 7.121310e-02 7.606198e+00 2.245832e+00 1.287969e+00 7.773726e+00 4.125397e+00 2.625633e+00 2.271033e+00 2.910170e+00 4.478767e+00 3.217931e+00 2.045685e+00 1.796477e+00 2.091659e-03 9.938782e-01 4.490070e-01 2.361869e-01 9.854008e-01 6.190392e-01 4.825463e-01 4.185444e-01 5.666397e-01 6.765417e-01 5.524633e-01 3.451006e-01 3.281085e-01 3.504114e-04
<GCONST> 1.038017e+02
<STATE> 3
<MEAN> 39
 4.030525e+00 -2.766241e+00 -1.057471e+01 -2.203100e+01 -1.260183e+01 2.177775e+00 2.842812e+00 -6.970507e+00 -3.622368e+00 -5.114741e+00 -3.702338e+00 -4.487554e+00 7.772769e-01 8.659044e-02 -3.177663e-01 -1.518195e-01 4.677595e-01 3.928165e-01 -2.664967e-01 -3.102510e-02 3.653840e-01 2.515213e-01 -9.538682e-02 1.623191e-01 -1.766326e-02 -9.127536e-03 -3.741496e-02 3.615027e-03 -5.723949e-04 1.403012e-01 6.847878e-02 -8.395538e-02 -6.663427e-02 3.453605e-02 -2.105408e-02 -3.310279e-02 -1.048100e-02 4.302496e-02 -2.222680e-03
<VARIANCE> 39
 5.737478e+00 2.792097e+01 3.446313e+01 1.120180e+02 1.099428e+02 8.912699e+01 4.758822e+01 1.078678e+02 2.450045e+02 1.050911e+02 8.433897e+01 4.190476e+01 7.961146e-03 1.509343e-01 5.352927e-01 4.828933e-01 2.120220e+00 1.428489e+00 1.927812e+00 1.481746e+00 1.843104e+00 2.226759e+00 1.859828e+00 1.861044e+00 1.483470e+00 2.257783e-04 2.986195e-02 6.485911e-02 7.605783e-02 2.264017e-01 2.364529e-01 2.301601e-01 2.124286e-01 2.857263e-01 3.607865e-01 2.949468e-01 2.999641e-01 2.652302e-01 3.647891e-05
<GCONST> 7.879308e+01
<STATE> 4
<MEAN> 39
 -2.355880e+00 -7.453995e+00 -8.239983e+00 -4.225411e+00 -5.201147e-01 -8.117086e+00 -4.654065e+00 -1.241319e+00 -3.619642e+00 -8.265126e+00 -1.580575e+00 -1.664109e+00 3.034797e-01 -6.805267e-01 6.847710e-02 4.294972e-01 3.387684e-01 3.267057e-01 8.675627e-02 -7.105992e-02 -7.647523e-02 -7.393910e-02 -6.950765e-02 6.187208e-02 2.646378e-02 -3.057528e-02 -1.229965e-03 2.762544e-02 8.637064e-03 -6.313676e-02 -6.698122e-02 6.164007e-02 2.677796e-02 -4.287090e-02 -4.240113e-03 4.968393e-02 2.831136e-02 -4.195051e-02 8.343717e-04
<VARIANCE> 39
 3.862601e+01 2.712287e+01 6.055687e+01 6.350844e+01 2.735559e+01 1.255794e+02 5.201236e+01 3.491395e+01 5.837576e+01 4.623906e+01 3.117237e+01 2.365376e+01 6.074689e-02 5.192072e-01 9.892986e-01 1.168023e+00 1.855863e+00 1.618273e+00 2.072614e+00 2.027791e+00 2.016492e+00 2.501768e+00 2.306888e+00 1.787970e+00 1.770252e+00 5.425516e-04 6.994013e-02 1.503946e-01 1.913219e-01 2.401755e-01 2.460077e-01 2.920956e-01 3.622948e-01 3.431126e-01 3.746276e-01 3.549300e-01 3.103066e-01 3.413932e-01 5.215283e-05
<GCONST> 8.587029e+01
<TRANSP> 5
 0.000000e+00 1.000000e+00 0.000000e+00 0.000000e+00 0.000000e+00
 0.000000e+00 9.525458e-01 4.745420e-02 0.000000e+00 0.000000e+00
 0.000000e+00 0.000000e+00 9.551854e-01 4.481461e-02 0.000000e+00
 0.000000e+00 0.000000e+00 0.000000e+00 9.510117e-01 4.898831e-02
 0.000000e+00 0.000000e+00 0.000000e+00 0.000000e+00 0.000000e+00
<ENDHMM>
