~o
<STREAMINFO> 1 39
<VECSIZE> 39<NULLD><MFCC_E_D_A><DIAGC>
~h "nine"
<BEGINHMM>
<NUMSTATES> 5
<STATE> 2
<MEAN> 39
 -6.908146e-01 -2.128165e+00 2.489023e+00 -3.383948e+00 -7.759009e+00 -8.680700e+00 -8.066974e+00 -1.136912e+01 -6.963793e+00 -7.409408e+00 -9.785776e+00 -7.565293e-01 5.939091e-01 3.846648e-01 -1.390758e+00 -7.512250e-01 -5.567073e-01 3.842918e-01 9.968454e-02 -6.824555e-02 2.552868e-01 4.731317e-01 -2.726064e-01 -7.719155e-01 -2.104104e-01 5.073563e-02 -1.786236e-01 -2.591009e-01 -1.858269e-01 -6.381071e-02 2.642306e-01 2.593964e-01 5.365130e-02 1.321787e-01 7.123979e-02 -3.612818e-02 1.340147e-01 -7.617994e-02 -7.280751e-03
<VARIANCE> 39
 1.987822e+01 8.027340e+01 4.927008e+01 4.674508e+01 8.602612e+01 9.300800e+01 6.803104e+01 8.065297e+01 9.066715e+01 3.622263e+01 8.233001e+01 5.664704e+01 5.527516e-02 2.253292e+00 5.882827e+00 5.273551e+00 3.463693e+00 7.821575e+00 4.833147e+00 4.644139e+00 8.525998e+00 4.661037e+00 2.357356e+00 3.513838e+00 4.193063e+00 3.625522e-03 2.984994e-01 8.521685e-01 7.926204e-01 6.484087e-01 8.865277e-01 6.169549e-01 9.093314e-01 1.446951e+00 8.728620e-01 4.170950e-01 5.603095e-01 6.482873e-01 4.974080e-04
<GCONST> 1.183157e+02
<STATE> 3
<MEAN> 39
 -9.730439e-01 -1.982918e+01 -7.914437e+00 -8.900531e+00 3.368651e+00 -4.144853e-01 -7.355680e+00 -7.134763e+00 -1.567290e+00 -9.767292e+00 -9.232634e+00 -8.072663e+00 7.988725e-01 -2.495094e-02 -4.954972e-02 4.444883e-01 5.612141e-02 -4.817669e-01 -1.252671e-01 4.037582e-01 2.515014e-01 -2.645026e-01 -9.907770e-02 1.719679e-01 7.206460e-02 -6.477572e-03 -1.128097e-02 1.499731e-01 1.593334e-01 1.375603e-02 -2.367370e-01 -1.295464e-01 1.160150e-01 9.212958e-03 -6.334143e-02 8.627433e-02 -1.618264e-02 5.780686e-02 -1.891503e-03
<VARIANCE> 39
 6.004882e+00 1.763978e+01 2.350694e+01 2.416953e+01 5.407501e+01 1.244355e+02 6.845897e+01 5.454124e+01 1.080771e+02 3.742353e+01 5.646469e+01 4.832743e+01 7.040680e-03 2.006455e-01 5.396534e-01 1.205406e+00 9.086758e-01 2.177210e+00 2.256045e+00 2.084062e+00 2.586514e+00 1.229080e+00 1.226467e+00 1.465847e+00 1.735507e+00 1.429590e-04 3.318179e-02 1.131667e-01 9.459984e-02 1.359009e-01 2.388233e-01 2.851759e-01 2.753107e-01 3.844270e-01 2.366019e-01 2.857229e-01 2.577322e-01 2.411261e-01 1.388709e-05
<GCONST> 7.308983e+01
<STATE> 4
<MEAN> 39
 -5.590666e+00 -5.820246e+00 4.277969e+00 -5.094212e+00 -8.030606e+00 -3.888328e+00 -2.930101e+00 -6.872698e+00 -6.206803e+00 -6.149964e+00 -6.271014e+00 -3.947651e+00 4.079310e-01 -2.820354e-01 5.276954e-01 -4.055712e-02 2.201930e-01 2.000526e-01 7.753432e-02 -1.105161e-01 -1.525861e-01 2.619422e-02 1.387855e-01 2.817500e-01 5.179495e-02 -2.459361e-02 1.230010e-02 -3.300529e-02 -6.545005e-02 1.212143e-02 9.271228e-02 5.993878e-03 -5.080541e-02 5.713476e-03 4.452747e-02 -2.599808e-02 -1.206567e-02 -4.442863e-03 2.041857e-04
<VARIANCE> 39
 1.495957e+01 4.604616e+01 3.212285e+01 7.412234e+01 5.136273e+01 5.298159e+01 5.082040e+01 5.301727e+01 5.233159e+01 3.822124e+01 4.247134e+01 2.274289e+01 6.571537e-02 5.191606e-01 1.493720e+00 1.591744e+00 1.646983e+00 2.453004e+00 1.983738e+00 2.954933e+00 2.854305e+00 2.003055e+00 2.513924e+00 2.186255e+00 1.726429e+00 8.098592e-04 7.626514e-02 1.628936e-01 1.811288e-01 2.315292e-01 3.103499e-01 3.317609e-01 5.391721e-01 4.176247e-01 3.296345e-01 3.649694e-01 3.663282e-01 3.234465e-01 8.721135e-05
<GCONST> 8.887522e+01
<TRANSP> 5
 0.000000e+00 1.000000e+00 0.000000e+00 0.000000e+00 0.000000e+00
 0.000000e+00 9.228009e-01 7.719915e-02 0.000000e+00 0.000000e+00
 0.000000e+00 0.000000e+00 9.446231e-01 5.537697e-02 0.000000e+00
 0.000000e+00 0.000000e+00 0.000000e+00 9.652983e-01 3.470170e-02
 0.000000e+00 0.000000e+00 0.000000e+00 0.000000e+00 0.000000e+00
<ENDHMM>
