~o
<STREAMINFO> 1 39
<VECSIZE> 39<NULLD><MFCC_E_D_A><DIAGC>
~h "one"
<BEGINHMM>
<NUMSTATES> 5
<STATE> 2
<MEAN> 39
 1.925566e+00 2.268978e+00 -2.022969e+00 -1.366025e+01 -9.228944e+00 -3.857352e+00 -4.551948e+00 -4.182165e+00 -4.514416e+00 -6.719132e+00 -3.866560e+00 -5.327718e+00 5.604350e-01 6.682920e-01 -4.514682e-01 -6.606614e-01 -1.807918e+00 -2.414075e-01 1.080130e+00 3.460202e-01 6.997961e-03 1.165337e-02 -9.728431e-02 -3.260951e-01 -1.536080e-01 5.425568e-02 -2.381196e-01 -3.362938e-01 -1.051722e-01 9.276696e-02 3.411611e-01 1.761076e-01 6.990673e-02 -8.334056e-02 -4.765695e-02 -4.000388e-02 -2.025337e-02 1.683605e-02 -6.373283e-03
<VARIANCE> 39
 4.098027e+01 3.943231e+01 3.701757e+01 1.472832e+02 8.531038e+01 8.029321e+01 7.151042e+01 6.477947e+01 7.940397e+01 3.293236e+01 5.835141e+01 2.375384e+01 7.636821e-02 3.180555e+00 4.723161e+00 2.313078e+00 3.676252e+00 7.804462e+00 5.415961e+00 3.676158e+00 4.284979e+00 5.004813e+00 3.636880e+00 1.932609e+00 2.615218e+00 3.380863e-03 3.578815e-01 5.161373e-01 3.834702e-01 7.281512e-01 8.784285e-01 8.880451e-01 5.958734e-01 6.688240e-01 8.053851e-01 6.862534e-01 3.536404e-01 5.019618e-01 4.755364e-04
<GCONST> 1.135499e+02
<STATE> 3
<MEAN> 39
 -5.236174e-01 -1.445930e+01 -8.492373e+00 -1.612998e+01 1.827368e+00 -4.712340e-01 -4.263080e+00 -6.549875e+00 -5.764821e+00 -6.341014e+00 -9.812456e+00 -5.715777e+00 7.833460e-01 -1.842775e-01 -1.234119e-01 3.939293e-01 1.386280e+00 1.094303e-01 -1.067051e+00 -2.981289e-01 -4.375361e-02 3.765561e-02 1.601792e-01 -4.327247e-01 2.365471e-01 -1.083602e-02 6.042650e-02 2.526833e-01 1.174210e-01 7.267968e-02 -1.999395e-01 -5.452509e-02 -2.263595e-02 -6.331006e-02 6.320401e-03 1.947949e-02 5.182351e-02 5.575446e-02 -1.571792e-03
<VARIANCE> 39
 6.209545e+00 2.111071e+01 2.308002e+01 7.661327e+01 7.448266e+01 1.744644e+02 6.285028e+01 1.063758e+02 1.507242e+02 5.804655e+01 9.273180e+01 5.474678e+01 1.407229e-02 3.758577e-01 2.267882e+00 9.903994e-01 1.094793e+00 3.365810e+00 2.082602e+00 2.123907e+00 3.415149e+00 1.898262e+00 2.449166e+00 1.659748e+00 2.096987e+00 2.152945e-04 4.087893e-02 1.115108e-01 1.257005e-01 1.987049e-01 2.699502e-01 4.219269e-01 3.246633e-01 5.064402e-01 3.011881e-01 4.439897e-01 2.618785e-01 3.181817e-01 1.817956e-05
<GCONST> 8.537623e+01
<STATE> 4
<MEAN> 39
 -3.774677e+00 -2.669739e+00 2.801517e+00 5.918435e-01 -2.122056e+00 -5.167058e+00 -5.013891e+00 -7.992436e+00 -5.824552e+00 -9.571169e+00 -6.083614e+00 -2.774366e+00 3.878755e-01 -3.727598e-01 1.762951e-01 3.708961e-03 3.166882e-02 1.205497e-01 2.932793e-01 1.079780e-01 5.732833e-02 -7.777220e-02 -1.111456e-01 4.668357e-01 -4.082773e-02 -2.681401e-02 -1.450145e-02 -8.014567e-02 -6.987035e-02 -7.460593e-02 2.187194e-02 -3.679585e-03 7.169572e-03 1.022455e-01 3.014119e-02 1.667009e-02 -5.635212e-03 -3.251181e-02 1.120192e-04
<VARIANCE> 39
 1.986700e+01 1.730942e+01 1.990047e+01 3.055112e+01 4.723676e+01 7.344875e+01 4.147549e+01 4.351209e+01 5.218997e+01 4.890400e+01 4.859843e+01 3.650137e+01 6.579369e-02 4.577069e-01 1.085149e+00 1.383959e+00 1.385649e+00 1.553436e+00 1.839857e+00 2.261130e+00 2.753770e+00 2.024129e+00 1.997190e+00 2.052788e+00 1.753705e+00 8.451095e-04 6.357973e-02 1.228122e-01 1.712840e-01 2.310998e-01 2.378701e-01 3.212056e-01 3.850771e-01 4.082882e-01 3.450157e-01 3.688244e-01 3.639052e-01 3.277093e-01 9.708241e-05
<GCONST> 8.468236e+01
<TRANSP> 5
 0.000000e+00 1.000000e+00 0.000000e+00 0.000000e+00 0.000000e+00
 0.000000e+00 9.256390e-01 7.436103e-02 0.000000e+00 0.000000e+00
 0.000000e+00 0.000000e+00 9.440601e-01 5.593990e-02 0.000000e+00
 0.000000e+00 0.000000e+00 0.000000e+00 9.599839e-01 4.001609e-02
 0.000000e+00 0.000000e+00 0.000000e+00 0.000000e+00 0.000000e+00
<ENDHMM>
