~o
<STREAMINFO> 1 39
<VECSIZE> 39<NULLD><MFCC_E_D_A><DIAGC>
~h "seven"
<BEGINHMM>
<NUMSTATES> 5
<STATE> 2
<MEAN> 39
 -2.199280e+01 1.612336e+00 -9.270425e+00 3.140202e+00 -3.818696e+00 -5.196844e+00 -9.296914e-01 -5.450462e+00 -2.248948e+00 -3.803602e+00 -1.356009e+00 -1.226380e+00 3.958497e-01 4.066744e-01 -4.158867e-01 -4.869037e-02 -2.554980e-01 -5.545206e-01 -4.609086e-01 -4.777277e-02 1.144404e-01 1.680144e-01 -4.753895e-02 -4.974929e-01 1.210438e-01 3.837234e-02 1.476195e-01 -1.871698e-01 5.047511e-02 -1.221362e-01 2.423607e-02 4.545971e-02 7.026388e-03 6.728247e-02 -6.694399e-03 -5.588671e-02 -5.460823e-02 -5.717862e-02 -1.723240e-04
<VARIANCE> 39
 8.718391e+01 5.249814e+01 4.766097e+01 3.834768e+01 4.445806e+01 5.314917e+01 2.663203e+01 2.299483e+01 3.072809e+01 2.527748e+01 3.200395e+01 1.602401e+01 5.107622e-02 7.486444e+00 4.653908e+00 2.396225e+00 3.416343e+00 3.262611e+00 4.296412e+00 3.134732e+00 2.309967e+00 2.804363e+00 2.139690e+00 3.027589e+00 1.677126e+00 2.270159e-03 8.240526e-01 4.346733e-01 3.596045e-01 3.810023e-01 5.883499e-01 8.167657e-01 6.123282e-01 4.553987e-01 4.408078e-01 3.791643e-01 5.190011e-01 3.184611e-01 3.806909e-04
<GCONST> 1.028377e+02
<STATE> 3
<MEAN> 39
 -6.464596e-01 -9.451626e+00 -1.037066e+00 -6.651814e+00 -6.884165e+00 -1.343432e+01 -6.486320e+00 -4.413516e+00 -1.225732e+00 -5.004179e+00 -9.921921e+00 -2.611045e+00 6.822933e-01 1.094981e-01 3.489974e-01 3.448351e-01 2.486152e-01 1.613571e-01 1.580639e-01 -1.931748e-01 -2.434322e-01 -1.686958e-01 -4.327705e-02 8.766455e-02 -1.128143e-01 -8.423309e-03 -5.498556e-02 9.137119e-02 1.660984e-03 5.768675e-02 2.101674e-02 -8.269368e-03 -3.173799e-02 -1.954111e-02 -1.225055e-02 5.872918e-03 6.480812e-02 1.198251e-02 -2.212393e-03
<VARIANCE> 39
 8.802854e+00 4.852448e+01 4.279303e+01 6.605252e+01 4.591251e+01 1.082286e+02 6.897418e+01 6.824234e+01 1.291659e+02 6.120217e+01 7.283810e+01 8.619552e+01 1.459289e-02 3.357895e-01 1.542037e+00 7.760401e-01 1.941277e+00 1.961542e+00 1.919166e+00 2.624761e+00 3.371786e+00 3.155699e+00 2.439965e+00 2.183220e+00 2.214557e+00 7.874125e-04 6.937133e-02 2.417394e-01 1.294883e-01 3.178362e-01 2.901178e-01 3.459592e-01 4.670251e-01 5.202399e-01 5.535961e-01 4.404273e-01 4.170292e-01 3.296375e-01 1.372288e-04
<GCONST> 9.258801e+01
<STATE> 4
<MEAN> 39
 -5.574920e+00 -1.253578e+00 3.081427e+00 7.715125e-01 -9.931649e-01 -4.901486e+00 -6.120693e+00 -6.274792e+00 -4.909101e+00 -7.615313e+00 -2.864525e+00 -3.904003e+00 2.613875e-01 -6.224846e-01 -2.566096e-01 -5.505244e-01 -3.008750e-01 4.897653e-01 4.127912e-01 3.561969e-01 4.014393e-01 -1.480664e-02 -3.121929e-02 4.558117e-01 4.466381e-02 -3.727121e-02 2.334010e-02 -3.718065e-02 -2.263824e-02 -3.599666e-02 -6.832217e-02 -1.623813e-02 -7.141423e-03 -2.484998e-02 6.122694e-03 3.540089e-02 -5.751966e-02 3.677252e-02 1.492813e-03
<VARIANCE> 39
 1.369166e+01 1.218585e+01 2.367075e+01 4.082328e+01 2.689152e+01 3.758262e+01 3.509568e+01 2.974037e+01 2.718914e+01 2.798367e+01 2.158199e+01 1.720296e+01 5.189670e-02 3.850221e-01 7.562914e-01 8.768552e-01 9.032196e-01 1.341163e+00 1.530770e+00 1.603211e+00 1.810610e+00 1.803943e+00 1.831459e+00 1.790097e+00 1.437767e+00 9.129709e-04 6.666154e-02 1.044475e-01 1.418654e-01 1.718718e-01 2.141247e-01 2.755202e-01 3.290574e-01 3.379314e-01 3.291756e-01 3.446186e-01 2.995636e-01 2.502626e-01 1.129151e-04
<GCONST> 7.502537e+01
<TRANSP> 5
 0.000000e+00 1.000000e+00 0.000000e+00 0.000000e+00 0.000000e+00
 0.000000e+00 9.534906e-01 4.650947e-02 0.000000e+00 0.000000e+00
 0.000000e+00 0.000000e+00 9.703151e-01 2.968495e-02 0.000000e+00
 0.000000e+00 0.000000e+00 0.000000e+00 9.308872e-01 6.911278e-02
 0.000000e+00 0.000000e+00 0.000000e+00 0.000000e+00 0.000000e+00
<ENDHMM>
