~o
<STREAMINFO> 1 39
<VECSIZE> 39<NULLD><MFCC_E_D_A><DIAGC>
~h "six"
<BEGINHMM>
<NUMSTATES> 5
<STATE> 2
<MEAN> 39
 -2.480286e+01 2.258853e+00 -9.530140e+00 4.486325e+00 -2.410590e+00 -3.765169e+00 -5.065820e-02 -5.532656e+00 -3.814824e+00 -2.608200e+00 -9.841419e-01 -1.639305e+00 3.420277e-01 -1.503975e-01 1.485174e-01 1.768009e-02 1.234732e-01 -3.703144e-01 -2.792803e-01 -1.372326e-01 -1.522452e-01 -5.208008e-02 3.504190e-02 -6.633434e-02 8.620302e-02 2.589105e-02 3.223915e-01 -1.412934e-01 1.770020e-01 -1.258928e-01 -1.545909e-01 -1.025182e-01 -1.451980e-01 8.065226e-03 -2.800603e-02 -2.837896e-02 -4.913905e-02 3.623174e-02 1.741481e-03
<VARIANCE> 39
 4.848106e+01 6.331857e+01 3.923159e+01 2.845522e+01 3.571980e+01 3.061799e+01 2.735613e+01 2.337448e+01 2.705355e+01 2.197425e+01 2.610088e+01 1.535852e+01 3.492538e-02 4.901181e+00 2.462616e+00 2.678101e+00 2.302638e+00 3.498786e+00 3.101343e+00 2.679331e+00 2.284196e+00 2.442019e+00 1.900047e+00 2.182784e+00 1.744617e+00 1.738976e-03 4.817686e-01 3.356011e-01 3.101130e-01 3.749159e-01 6.933210e-01 5.608521e-01 5.261194e-01 5.011969e-01 4.845746e-01 3.748741e-01 4.877580e-01 3.662091e-01 2.608021e-04
<GCONST> 9.630067e+01
<STATE> 3
<MEAN> 39
 -7.853919e+00 -6.912085e+00 3.389821e+00 -3.289189e+00 -1.598379e+01 -1.451596e+01 -3.474717e+00 -7.224826e+00 -4.750360e+00 -2.303736e+00 -2.361740e+00 2.702759e-01 5.731963e-01 -2.511192e-01 -1.816126e-01 -3.278501e-01 2.810555e-01 2.483582e-02 -6.265257e-02 1.773242e-01 2.879261e-01 1.921405e-01 -1.288448e-02 6.437925e-02 4.252211e-02 -4.652890e-03 -3.520198e-01 1.810305e-01 -1.051595e-01 6.429210e-02 2.063484e-01 1.771091e-01 1.297399e-01 2.721488e-02 -1.595926e-02 -4.998425e-03 4.236162e-02 -2.243115e-02 -3.142141e-03
<VARIANCE> 39
 2.379181e+01 3.149803e+01 1.240125e+02 9.407397e+01 4.234560e+01 5.988076e+01 8.506182e+01 6.480459e+01 8.037017e+01 5.615316e+01 8.107108e+01 3.506929e+01 4.913330e-02 4.858919e+00 3.380500e+00 6.676617e+00 4.443031e+00 4.167373e+00 3.626955e+00 4.169435e+00 3.704515e+00 4.057476e+00 3.132502e+00 3.470474e+00 2.361011e+00 3.796253e-03 3.916771e-01 4.203230e-01 8.839450e-01 5.422052e-01 5.412236e-01 6.953387e-01 6.988078e-01 6.164721e-01 7.481741e-01 5.208973e-01 5.029920e-01 4.196011e-01 4.887196e-04
<GCONST> 1.137013e+02
<STATE> 4
<MEAN> 39
 -2.234141e+01 2.085336e+00 -9.526569e+00 3.950247e+00 -1.927261e+00 -6.009185e+00 -3.634356e-01 -3.953304e+00 -2.889722e+00 -4.427278e+00 -1.021805e+00 -6.923663e-01 3.186616e-01 3.608818e-01 2.483430e-02 2.715011e-01 -3.278402e-01 2.655719e-01 3.338539e-01 -9.793796e-02 -5.344177e-02 -1.438362e-01 -4.049085e-02 2.741886e-04 -1.063981e-01 -1.591355e-02 1.097236e-01 -7.699801e-02 -6.594282e-03 -2.227207e-02 -1.982473e-02 -2.616379e-02 -3.211975e-02 -5.697538e-04 3.862337e-02 3.037369e-03 8.369833e-03 -2.010890e-02 -6.517726e-04
<VARIANCE> 39
 4.716292e+01 5.083842e+01 4.322401e+01 3.375173e+01 3.159957e+01 3.405647e+01 2.804757e+01 2.044644e+01 2.355448e+01 2.112385e+01 1.798598e+01 1.664882e+01 5.929247e-02 1.151144e+00 1.464765e+00 1.060673e+00 1.192642e+00 1.505500e+00 1.645281e+00 1.654844e+00 1.762078e+00 1.643919e+00 1.927204e+00 1.547246e+00 1.617570e+00 7.122015e-04 1.381288e-01 1.486857e-01 1.870416e-01 2.152013e-01 2.571872e-01 2.876899e-01 3.404100e-01 3.657102e-01 3.351317e-01 3.863724e-01 3.145671e-01 3.301977e-01 8.688682e-05
<GCONST> 8.127718e+01
<TRANSP> 5
 0.000000e+00 1.000000e+00 0.000000e+00 0.000000e+00 0.000000e+00
 0.000000e+00 9.540104e-01 4.598967e-02 0.000000e+00 0.000000e+00
 0.000000e+00 0.000000e+00 9.562209e-01 4.377906e-02 0.000000e+00
 0.000000e+00 0.000000e+00 0.000000e+00 9.669026e-01 3.309742e-02
 0.000000e+00 0.000000e+00 0.000000e+00 0.000000e+00 0.000000e+00
<ENDHMM>
