~o
<STREAMINFO> 1 39
<VECSIZE> 39<NULLD><MFCC_E_D_A><DIAGC>
~h "three"
<BEGINHMM>
<NUMSTATES> 5
<STATE> 2
<MEAN> 39
 -1.427526e+01 -4.190500e+00 -5.873406e+00 2.671863e+00 -4.397321e+00 -8.435040e+00 -5.526179e+00 -6.869106e+00 -3.079399e+00 -5.004009e+00 -6.136482e-01 -2.720040e+00 3.841068e-01 8.008564e-01 -5.377640e-01 2.240001e-01 2.145204e-01 -4.163270e-01 -5.422183e-01 -4.925329e-01 -1.318858e-01 -3.427235e-02 6.658297e-03 -1.850255e-01 2.766017e-02 3.696565e-02 6.378404e-02 -9.099481e-02 9.093879e-02 -4.837391e-02 -3.634688e-02 1.502074e-03 -2.313426e-02 9.274036e-02 -4.118752e-02 -2.187401e-02 -8.112041e-03 4.307631e-02 -6.741682e-04
<VARIANCE> 39
 1.433147e+02 2.832011e+01 4.745638e+01 3.085709e+01 3.751211e+01 9.613473e+01 9.284533e+01 5.662079e+01 3.291511e+01 3.655614e+01 4.030914e+01 2.350745e+01 7.529262e-02 6.097948e+00 2.387146e+00 4.120472e+00 2.879653e+00 3.237073e+00 4.598003e+00 5.403453e+00 3.556650e+00 2.644944e+00 3.617052e+00 3.205983e+00 2.745763e+00 1.955746e-03 7.153825e-01 3.645401e-01 7.543153e-01 5.484763e-01 5.991184e-01 7.928569e-01 9.733672e-01 6.821309e-01 5.343286e-01 7.054254e-01 6.447588e-01 4.998086e-01 2.839043e-04
<GCONST> 1.107418e+02
<STATE> 3
<MEAN> 39
 -1.833399e+00 -1.019959e+01 1.281713e+01 -4.739991e+00 -1.707755e+01 -1.593406e+01 -9.966098e+00 -7.462496e+00 -9.545062e+00 -3.373308e+00 1.491568e-01 -1.416076e+00 7.243707e-01 -4.973192e-01 6.936634e-01 8.440021e-01 -5.852274e-01 -2.319551e-01 3.425341e-01 2.197527e-01 -2.244527e-01 -4.021005e-01 8.392460e-02 -8.481420e-02 3.515627e-02 -8.204556e-03 -1.458535e-02 1.003292e-01 -9.111501e-02 1.861905e-02 1.295148e-01 5.710909e-02 -1.161752e-02 -6.775105e-02 5.550518e-02 -3.398740e-03 -2.492187e-02 -6.672292e-02 -1.769936e-03
<VARIANCE> 39
 1.968501e+01 5.909418e+01 1.046177e+02 1.093842e+02 3.414650e+01 1.579288e+02 8.497950e+01 8.700534e+01 1.273861e+02 1.610309e+02 9.812268e+01 4.820296e+01 9.789092e-03 5.402218e-01 1.148583e+00 1.816516e+00 1.673195e+00 1.537850e+00 1.600102e+00 2.315714e+00 2.880053e+00 3.243883e+00 2.567946e+00 1.691469e+00 1.922464e+00 2.204993e-04 6.208191e-02 1.339847e-01 1.981998e-01 2.324882e-01 2.246957e-01 2.520252e-01 3.379392e-01 3.829479e-01 4.358947e-01 3.317998e-01 2.636584e-01 3.135969e-01 2.415701e-05
<GCONST> 8.981844e+01
<STATE> 4
<MEAN> 39
 -8.395529e+00 -7.775421e-02 7.829303e+00 -5.292469e+00 -6.560577e+00 -4.040747e+00 -8.616830e+00 -1.004655e+01 -5.936052e+00 -5.558721e+00 -4.886144e+00 -1.805410e+00 3.073120e-01 -1.875902e-01 -1.946381e-01 -9.374641e-01 2.514967e-01 6.962066e-01 2.701944e-01 1.718922e-01 4.033092e-01 2.916685e-01 -1.569913e-01 1.944542e-01 -7.500192e-02 -3.005053e-02 -2.134029e-03 -4.181381e-02 1.820995e-02 3.133881e-03 -5.074416e-02 -2.878183e-02 1.087422e-02 2.190325e-02 -3.637534e-02 2.554284e-02 4.591626e-02 2.069368e-02 9.317857e-04
<VARIANCE> 39
 1.008287e+01 3.331028e+01 6.308082e+01 6.085846e+01 4.700796e+01 3.369674e+01 4.608654e+01 3.959102e+01 2.627508e+01 3.615686e+01 7.685535e+01 1.979471e+01 7.286458e-02 3.752463e-01 9.801794e-01 1.452289e+00 1.294026e+00 1.825396e+00 1.692554e+00 2.228772e+00 1.735693e+00 2.094455e+00 2.136861e+00 2.206143e+00 1.769849e+00 8.629284e-04 6.808507e-02 1.119863e-01 1.857774e-01 2.043205e-01 2.734864e-01 2.733217e-01 3.349606e-01 3.184204e-01 3.610719e-01 3.530506e-01 3.954250e-01 3.398242e-01 9.839797e-05
<GCONST> 8.383278e+01
<TRANSP> 5
 0.000000e+00 1.000000e+00 0.000000e+00 0.000000e+00 0.000000e+00
 0.000000e+00 9.540573e-01 4.594271e-02 0.000000e+00 0.000000e+00
 0.000000e+00 0.000000e+00 9.524347e-01 4.756533e-02 0.000000e+00
 0.000000e+00 0.000000e+00 0.000000e+00 9.517494e-01 4.825056e-02
 0.000000e+00 0.000000e+00 0.000000e+00 0.000000e+00 0.000000e+00
<ENDHMM>
