~o
<STREAMINFO> 1 39
<VECSIZE> 39<NULLD><MFCC_E_D_A><DIAGC>
~h "two"
<BEGINHMM>
<NUMSTATES> 5
<STATE> 2
<MEAN> 39
 -1.617786e+01 -4.177481e+00 -2.281011e+00 -4.628901e+00 -3.023669e+00 -9.297048e+00 -2.703976e+00 -1.444848e+00 -5.092633e+00 -2.725173e+00 -1.096790e+00 -1.493879e+00 5.323071e-01 5.564858e-01 -2.044035e-01 4.927327e-01 1.324483e-01 -5.593926e-01 -6.540866e-01 -5.809508e-01 -1.064748e-01 -1.406382e-01 -4.823839e-02 -2.915406e-01 1.105721e-01 3.891920e-02 1.189234e-01 -4.257355e-02 7.038049e-02 1.775768e-02 -6.556361e-03 2.721745e-02 -8.576335e-02 -1.994398e-02 -1.351523e-02 -6.394561e-02 -1.171615e-02 -1.365133e-02 -3.175309e-03
<VARIANCE> 39
 1.318687e+02 4.855762e+01 3.939779e+01 3.148780e+01 4.138594e+01 6.641241e+01 6.555010e+01 4.543532e+01 2.951008e+01 3.486218e+01 4.043151e+01 1.706306e+01 8.338147e-02 6.955172e+00 3.681740e+00 3.488796e+00 2.910975e+00 3.356088e+00 3.685959e+00 3.665286e+00 4.240575e+00 2.736996e+00 3.937155e+00 2.929636e+00 1.954696e+00 4.344534e-03 9.371303e-01 6.845947e-01 5.551981e-01 5.343512e-01 6.276576e-01 6.231904e-01 5.169422e-01 7.446258e-01 5.365225e-01 6.988645e-01 5.368207e-01 3.345763e-01 6.312867e-04
<GCONST> 1.103567e+02
<STATE> 3
<MEAN> 39
 -3.397768e-01 -7.399169e+00 3.185390e+00 -1.829293e+00 -6.723962e+00 -1.702583e+01 -1.487892e+01 -7.355212e+00 -5.675692e+00 -1.934163e+00 -4.751603e+00 -2.727431e+00 6.875300e-01 2.643001e-01 3.208874e-01 -3.143726e-01 -7.975671e-02 3.312121e-01 4.046951e-01 -8.690761e-02 -3.654601e-01 -3.358323e-02 1.514938e-01 1.177369e-01 -1.582151e-01 -9.112321e-03 -3.030452e-02 8.521543e-02 -2.749096e-02 -8.627113e-03 1.808682e-02 5.766618e-02 1.090425e-01 1.118019e-02 -3.158399e-04 -4.874451e-02 2.150402e-02 6.950388e-03 -1.479374e-03
<VARIANCE> 39
 1.228466e+01 3.927255e+01 3.670916e+01 5.041788e+01 4.556372e+01 1.822149e+02 1.115919e+02 8.331250e+01 8.252562e+01 7.013978e+01 1.184127e+02 5.070145e+01 1.226138e-02 2.154162e-01 6.551347e-01 5.804912e-01 8.742579e-01 1.542132e+00 1.451292e+00 1.635110e+00 1.751098e+00 1.950434e+00 1.679505e+00 1.430202e+00 1.316091e+00 2.111217e-04 3.061182e-02 7.396564e-02 1.030480e-01 1.361551e-01 2.603633e-01 2.541375e-01 2.640105e-01 2.556702e-01 2.608140e-01 2.767660e-01 2.288750e-01 2.169902e-01 3.315067e-05
<GCONST> 7.736713e+01
<STATE> 4
<MEAN> 39
 -3.644631e+00 3.325319e-01 9.476385e-01 -2.182929e+00 -3.531349e-01 -4.448002e+00 -7.354982e+00 -8.210188e+00 -6.318959e+00 -5.973934e+00 -8.996480e-01 -2.795538e+00 2.835923e-01 -6.807199e-01 -2.204836e-01 -1.082181e-01 2.500338e-02 2.863870e-02 2.523844e-01 6.053177e-01 5.488387e-01 1.322024e-01 -3.860863e-01 9.923520e-02 9.629856e-02 -3.389134e-02 -6.594993e-03 -7.653068e-02 -2.529704e-02 -2.818615e-03 -3.076124e-02 -4.742882e-02 -6.276339e-02 3.093240e-03 2.078360e-02 5.211927e-02 -3.630948e-02 -1.629873e-02 5.201675e-04
<VARIANCE> 39
 2.927621e+01 3.382090e+01 3.314270e+01 2.621404e+01 1.957269e+01 3.171546e+01 4.036889e+01 3.641442e+01 2.062578e+01 2.499580e+01 4.099154e+01 1.822947e+01 5.353707e-02 6.844126e-01 9.416441e-01 1.228471e+00 1.443339e+00 1.781177e+00 2.070986e+00 2.059463e+00 1.913892e+00 1.632017e+00 1.733748e+00 1.877072e+00 1.382563e+00 1.072415e-03 1.084957e-01 1.199096e-01 1.912721e-01 2.443823e-01 3.245218e-01 3.137653e-01 3.249173e-01 3.387237e-01 3.015348e-01 3.018281e-01 3.389009e-01 2.589896e-01 1.590325e-04
<GCONST> 8.149402e+01
<TRANSP> 5
 0.000000e+00 1.000000e+00 0.000000e+00 0.000000e+00 0.000000e+00
 0.000000e+00 9.451029e-01 5.489706e-02 0.000000e+00 0.000000e+00
 0.000000e+00 0.000000e+00 9.563026e-01 4.369744e-02 0.000000e+00
 0.000000e+00 0.000000e+00 0.000000e+00 9.417139e-01 5.828613e-02
 0.000000e+00 0.000000e+00 0.000000e+00 0.000000e+00 0.000000e+00
<ENDHMM>
