~o
<STREAMINFO> 1 39
<VECSIZE> 39<NULLD><MFCC_E_D_A><DIAGC>
~h "zero"
<BEGINHMM>
<NUMSTATES> 5
<STATE> 2
<MEAN> 39
 -1.109520e+01 5.683754e+00 6.562886e-01 2.019974e+00 -7.999562e+00 -1.192125e+01 -6.005124e+00 -9.134854e+00 -6.462421e+00 -5.237833e+00 -5.203673e+00 -1.967373e+00 5.252364e-01 3.026094e-01 -6.690881e-01 4.825214e-01 -1.927091e-01 -7.786441e-01 -5.614825e-01 -8.587896e-02 1.568694e-01 -8.960882e-02 2.070585e-01 -1.048480e-01 2.742980e-01 3.988450e-02 3.992959e-02 -2.425237e-01 -1.857123e-02 -5.157261e-02 1.970242e-02 7.890620e-02 1.957552e-02 1.354717e-01 5.984185e-02 -3.628531e-02 6.344464e-02 -2.071537e-02 -3.609435e-03
<VARIANCE> 39
 4.067300e+01 9.708655e+01 6.336186e+01 1.209602e+02 9.091251e+01 7.308891e+01 4.787242e+01 4.419001e+01 5.133898e+01 5.425093e+01 4.496138e+01 4.355153e+01 6.401455e-02 2.743755e+00 7.239626e+00 3.140777e+00 5.518139e+00 4.376698e+00 3.142917e+00 3.251888e+00 3.827353e+00 2.615366e+00 4.439476e+00 3.285325e+00 3.006983e+00 2.094940e-03 4.457086e-01 6.443424e-01 4.997128e-01 6.672931e-01 6.541790e-01 5.280521e-01 6.726493e-01 6.293780e-01 4.875017e-01 7.432415e-01 6.020262e-01 4.881974e-01 2.889452e-04
<GCONST> 1.130256e+02
<STATE> 3
<MEAN> 39
 3.540756e+00 -1.463900e+01 -5.320550e+00 -2.280222e+00 -1.073492e+01 -1.202704e+01 -9.821582e+00 -4.087761e+00 -1.258555e+00 -1.310801e+00 1.028198e+00 -4.150095e+00 7.271757e-01 2.454818e-01 1.396843e-01 -6.097124e-01 -2.767262e-01 2.705370e-01 6.165371e-01 1.802926e-02 -3.202350e-01 1.716133e-01 2.870535e-01 2.449518e-01 -2.132979e-01 -7.352449e-03 -5.064007e-02 1.329234e-01 1.875799e-02 -3.178777e-02 5.710004e-02 1.663575e-02 2.657289e-02 -5.750626e-02 -7.113004e-02 2.138907e-02 -2.465020e-02 5.738377e-02 -9.295579e-04
<VARIANCE> 39
 1.287853e+01 1.406209e+01 1.065196e+02 6.669942e+01 5.545116e+01 1.528638e+02 6.299558e+01 7.311340e+01 6.882396e+01 6.704395e+01 1.132072e+02 5.652397e+01 1.077475e-02 5.612615e-01 1.203171e+00 1.475848e+00 2.185930e+00 2.135843e+00 2.290012e+00 2.438206e+00 2.615434e+00 2.713521e+00 2.154036e+00 1.933277e+00 2.594357e+00 2.332720e-04 4.342248e-02 1.339630e-01 1.365947e-01 1.831085e-01 3.237226e-01 3.608184e-01 3.194670e-01 4.001829e-01 4.230039e-01 3.478359e-01 3.140997e-01 3.700201e-01 3.798042e-05
<GCONST> 8.784213e+01
<STATE> 4
<MEAN> 39
 -3.207541e+00 -2.646393e+00 -4.600588e+00 -9.294440e+00 -3.169966e+00 -1.095895e+00 -4.205671e+00 -9.074654e+00 -5.980158e+00 -3.221017e+00 5.993938e-01 -2.434275e+00 3.046980e-01 -7.095066e-01 1.837239e-01 4.045881e-01 5.009552e-01 3.012637e-01 -2.173740e-01 1.512328e-01 4.715884e-01 -1.382101e-01 -5.724277e-01 -1.234962e-01 1.893842e-01 -3.327109e-02 -4.836889e-03 -9.061151e-02 -6.645635e-03 9.055994e-02 -5.341453e-02 -2.714200e-02 -9.967777e-03 2.606582e-02 7.783696e-02 2.148447e-02 -7.886361e-03 -5.274409e-02 2.264395e-04
<VARIANCE> 39
 3.039190e+01 1.067003e+01 3.037350e+01 6.782784e+01 2.556399e+01 3.611647e+01 6.112058e+01 4.142790e+01 3.587689e+01 4.196077e+01 5.678808e+01 2.580118e+01 5.315111e-02 6.760243e-01 1.169045e+00 1.047812e+00 1.786844e+00 1.919586e+00 1.799152e+00 1.920677e+00 2.032905e+00 2.301179e+00 2.069689e+00 1.995292e+00 1.690614e+00 8.811469e-04 1.212771e-01 1.366598e-01 1.857529e-01 3.035655e-01 2.992072e-01 3.383676e-01 2.992156e-01 3.488500e-01 3.776245e-01 3.597304e-01 3.856470e-01 2.983589e-01 1.325549e-04
<GCONST> 8.554942e+01
<TRANSP> 5
 0.000000e+00 1.000000e+00 0.000000e+00 0.000000e+00 0.000000e+00
 0.000000e+00 9.447946e-01 5.520542e-02 0.000000e+00 0.000000e+00
 0.000000e+00 0.000000e+00 9.655854e-01 3.441466e-02 0.000000e+00
 0.000000e+00 0.000000e+00 0.000000e+00 9.445316e-01 5.546837e-02
 0.000000e+00 0.000000e+00 0.000000e+00 0.000000e+00 0.000000e+00
<ENDHMM>
