~o
<STREAMINFO> 1 39
<VECSIZE> 39<NULLD><MFCC_E_D_A><DIAGC>
~h "eight"
<BEGINHMM>
<NUMSTATES> 5
<STATE> 2
<MEAN> 39
 -6.590415e+00 -5.319100e+00 1.174756e+01 -1.075483e+01 -1.468519e+01 -8.240827e+00 -5.895391e+00 -1.023908e+01 -4.878131e+00 -3.077272e+00 -3.219766e+00 -1.899482e+00 6.004991e-01 8.792036e-02 2.504153e-01 2.461533e-01 1.590319e-01 -1.938706e-01 9.611797e-03 -3.220345e-01 -3.134345e-01 -1.393744e-01 -8.827057e-02 4.517418e-03 6.618293e-02 6.903552e-03 -4.329054e-02 4.341748e-02 -1.188282e-01 8.822113e-02 1.029848e-01 4.707941e-02 5.244306e-03 2.987454e-02 6.545478e-03 -6.709964e-02 4.852332e-02 -7.650105e-03 -4.989607e-03
<VARIANCE> 39
 1.063456e+01 5.988929e+01 5.540223e+01 1.270405e+02 6.143794e+01 7.970920e+01 7.956490e+01 9.078713e+01 8.799722e+01 8.858719e+01 1.077267e+02 4.304412e+01 5.567056e-02 6.779869e-01 2.078281e+00 2.302629e+00 2.976707e+00 3.769910e+00 2.326627e+00 2.639925e+00 2.640385e+00 2.845589e+00 2.765324e+00 2.322630e+00 2.145844e+00 1.000000e-02 1.469591e-01 3.111796e-01 2.817352e-01 4.142969e-01 5.688667e-01 4.168403e-01 4.386430e-01 4.095674e-01 4.686791e-01 5.113453e-01 3.472836e-01 4.202386e-01 1.000000e-02
<GCONST> 1.079871e+02
<STATE> 3
<MEAN> 39
 -1.599023e+01 1.203194e+00 -2.780273e+00 -7.117296e-01 -4.999320e+00 -6.943140e+00 -4.400164e+00 -9.509797e+00 -5.983820e+00 -4.366764e+00 -5.545688e-01 -2.483918e+00 2.707367e-01 -1.534887e+00 2.510431e-01 -1.390281e+00 4.251260e-01 8.370239e-01 6.522781e-02 9.615075e-01 5.685666e-01 3.309299e-01 8.529967e-02 3.007059e-01 -1.490156e-01 5.152841e-03 1.064131e-01 -6.406800e-02 1.975288e-01 -1.316784e-01 -1.218472e-01 4.917159e-02 -2.581502e-02 3.878991e-02 8.374312e-03 7.950122e-02 -2.750093e-02 2.429577e-02 3.206469e-03
<VARIANCE> 39
 7.588279e+01 3.793980e+01 7.143667e+01 4.158165e+01 3.353853e+01 3.040033e+01 3.685616e+01 2.419860e+01 2.498154e+01 2.457279e+01 3.775204e+01 2.035257e+01 4.641465e-02 5.218747e+00 4.064322e+00 4.125370e+00 4.159779e+00 2.911799e+00 2.855798e+00 2.583520e+00 1.959196e+00 2.440851e+00 2.609560e+00 2.444790e+00 2.521838e+00 1.000000e-02 9.654610e-01 8.043014e-01 6.103624e-01 7.858654e-01 4.776158e-01 5.440556e-01 4.678907e-01 3.557948e-01 4.734979e-01 5.326316e-01 4.406585e-01 5.272067e-01 1.000000e-02
<GCONST> 1.084849e+02
<STATE> 4
<MEAN> 39
 -1.704871e+01 -6.277645e-01 -6.012765e+00 3.806281e-02 -1.743673e+00 -5.023055e+00 3.131326e-02 -4.088152e+00 -3.521336e+00 -6.286239e+00 1.883701e-01 -2.439223e+00 2.048222e-01 7.129092e-01 -3.638297e-01 2.403895e-01 -1.652797e-01 1.200901e-01 1.796693e-01 -1.989841e-01 1.490998e-01 1.675445e-02 -1.990893e-01 -4.808920e-02 6.599623e-03 -2.521680e-02 -3.598175e-03 3.722145e-02 1.171442e-02 2.224111e-02 -1.346109e-02 -1.334949e-02 -3.358529e-02 -4.834009e-02 -1.842730e-02 4.333162e-03 -6.741784e-03 -1.673714e-03 1.044318e-03
<VARIANCE> 39
 5.158909e+01 1.958151e+01 4.353403e+01 2.413455e+01 4.122223e+01 2.137556e+01 4.105203e+01 2.952379e+01 1.925622e+01 2.551745e+01 2.783319e+01 1.527252e+01 6.317230e-02 6.196175e-01 9.733008e-01 9.939330e-01 1.049795e+00 1.451155e+00 1.750852e+00 1.835665e+00 1.842217e+00 1.783296e+00 2.035983e+00 1.606241e+00 1.599077e+00 1.000000e-02 7.648375e-02 1.474114e-01 1.545050e-01 1.709546e-01 2.841759e-01 2.994741e-01 3.580768e-01 3.452785e-01 3.642148e-01 4.048558e-01 3.046067e-01 3.268467e-01 1.000000e-02
<GCONST> 8.673658e+01
<TRANSP> 5
 0.000000e+00 1.000000e+00 0.000000e+00 0.000000e+00 0.000000e+00
 0.000000e+00 9.654832e-01 3.451677e-02 0.000000e+00 0.000000e+00
 0.000000e+00 0.000000e+00 9.071618e-01 9.283820e-02 0.000000e+00
 0.000000e+00 0.000000e+00 0.000000e+00 9.402730e-01 5.972696e-02
 0.000000e+00 0.000000e+00 0.000000e+00 0.000000e+00 0.000000e+00
<ENDHMM>
