~o
<STREAMINFO> 1 39
<VECSIZE> 39<NULLD><MFCC_E_D_A><DIAGC>
~h "five"
<BEGINHMM>
<NUMSTATES> 5
<STATE> 2
<MEAN> 39
 -1.683983e+01 -7.008166e+00 -6.719713e+00 6.756555e-01 -2.773892e+00 -3.611846e+00 -3.398499e+00 -4.840784e+00 -2.968620e+00 -3.872527e+00 -3.028812e+00 -3.756207e+00 3.079852e-01 6.661727e-01 -5.765768e-01 -4.153996e-01 -9.667925e-01 7.468811e-02 1.973304e-01 1.745593e-01 -3.297997e-01 8.393239e-02 8.724979e-02 -3.959354e-01 -2.688939e-01 4.564052e-02 6.491048e-02 -8.726317e-02 3.817369e-02 -1.041734e-01 9.423932e-02 5.412129e-02 2.429529e-02 -6.289277e-07 -3.374688e-02 -5.812076e-02 -4.228106e-02 1.501262e-02 -3.620565e-04
<VARIANCE> 39
 9.516674e+01 2.961397e+01 3.947854e+01 8.027569e+01 3.233405e+01 5.352255e+01 2.266317e+01 4.091348e+01 2.370617e+01 2.397214e+01 4.604333e+01 2.458936e+01 7.970070e-02 7.411035e+00 1.831372e+00 1.786673e+00 6.531864e+00 3.108482e+00 3.751829e+00 2.267691e+00 2.690795e+00 2.166093e+00 2.254391e+00 3.019378e+00 2.213561e+00 1.000000e-02 1.111747e+00 2.439527e-01 3.547801e-01 1.040112e+00 5.368972e-01 5.923910e-01 4.041010e-01 4.828037e-01 4.253783e-01 4.247551e-01 5.532210e-01 4.277424e-01 1.000000e-02
<GCONST> 1.081872e+02
<STATE> 3
<MEAN> 39
 -2.256975e+00 -1.635909e+01 -4.841129e+00 -1.109109e+01 -2.606804e+00 -5.970565e+00 1.050163e+00 -7.069150e+00 -2.311120e+00 -5.216384e+00 -9.827144e+00 -4.994754e+00 7.507969e-01 -3.821488e-02 3.095829e-01 6.730613e-01 5.419408e-01 -3.925962e-01 -5.364176e-01 -3.565091e-02 5.691559e-02 -9.196752e-02 -1.237457e-01 1.956143e-01 2.350725e-01 -1.223663e-02 -1.581289e-02 1.150170e-01 -3.762160e-02 8.678329e-02 -3.075374e-02 1.535596e-02 -7.756926e-02 3.883417e-03 -1.439569e-02 1.796398e-02 3.971269e-02 -4.366335e-02 -2.768307e-03
<VARIANCE> 39
 7.262268e+00 2.469618e+01 7.249159e+01 5.706969e+01 8.937428e+01 1.793366e+02 6.327747e+01 8.008770e+01 9.326211e+01 3.471367e+01 8.513935e+01 4.731081e+01 1.432654e-02 2.052020e-01 9.071648e-01 1.046915e+00 1.218724e+00 2.332888e+00 2.308955e+00 2.225137e+00 2.813750e+00 1.761907e+00 1.590356e+00 1.903723e+00 1.497120e+00 1.000000e-02 4.527772e-02 9.798199e-02 1.439828e-01 1.926281e-01 2.833201e-01 3.193102e-01 3.670416e-01 4.118475e-01 2.595485e-01 2.722777e-01 3.307181e-01 2.498585e-01 1.000000e-02
<GCONST> 9.205481e+01
<STATE> 4
<MEAN> 39
 -1.036655e+01 -4.958992e+00 -2.007201e+00 5.475972e-01 -5.399473e+00 -5.755101e+00 -3.613922e+00 -3.797571e+00 -3.884623e+00 -6.980285e+00 -2.826960e+00 -3.414138e+00 1.805377e-01 -4.363526e-01 1.627675e-01 -4.466659e-01 6.991908e-03 4.776935e-01 5.062696e-01 -3.246369e-02 2.411305e-01 4.484121e-03 -3.686544e-03 1.104791e-01 -3.845087e-02 -2.848287e-02 1.422097e-02 -5.566463e-02 3.874781e-02 -8.076784e-02 -2.976129e-02 -5.736913e-02 4.621473e-02 -7.721840e-03 1.414023e-02 1.920454e-02 1.019858e-02 2.858973e-02 1.934449e-03
<VARIANCE> 39
 3.600836e+01 1.304525e+01 3.874254e+01 2.930056e+01 3.230377e+01 3.593041e+01 2.365859e+01 3.126618e+01 2.311399e+01 2.314504e+01 2.460747e+01 1.474662e+01 3.703736e-02 1.306627e+00 8.322626e-01 1.550116e+00 1.831302e+00 1.478864e+00 2.276064e+00 2.284308e+00 2.839783e+00 1.939223e+00 2.404817e+00 1.817646e+00 1.732567e+00 1.000000e-02 1.522567e-01 1.385673e-01 2.325538e-01 2.681231e-01 2.768070e-01 3.623511e-01 4.166490e-01 5.460810e-01 3.922650e-01 4.406843e-01 3.257551e-01 3.340073e-01 1.000000e-02
<GCONST> 9.070761e+01
<TRANSP> 5
 0.000000e+00 1.000000e+00 0.000000e+00 0.000000e+00 0.000000e+00
 0.000000e+00 9.468892e-01 5.311077e-02 0.000000e+00 0.000000e+00
 0.000000e+00 0.000000e+00 9.606742e-01 3.932584e-02 0.000000e+00
 0.000000e+00 0.000000e+00 0.000000e+00 9.504249e-01 4.957507e-02
 0.000000e+00 0.000000e+00 0.000000e+00 0.000000e+00 0.000000e+00
<ENDHMM>
