~o
<STREAMINFO> 1 39
<VECSIZE> 39<NULLD><MFCC_E_D_A><DIAGC>
~h "four"
<BEGINHMM>
<NUMSTATES> 5
<STATE> 2
<MEAN> 39
 -1.657537e+01 -5.207324e+00 -7.175350e+00 5.215039e-01 -4.580146e+00 -3.270084e+00 -4.541194e+00 -4.848630e+00 -4.867703e+00 -3.612412e+00 -1.930803e+00 -3.388556e+00 2.836473e-01 7.338359e-01 2.699294e-01 -2.644129e-01 -9.331893e-01 -6.457713e-01 2.235780e-01 1.402856e-01 -1.988418e-01 -2.408182e-01 1.060672e-01 -1.591215e-01 3.951808e-02 4.105225e-02 9.607292e-02 -3.228347e-03 3.311618e-02 -1.556202e-01 -1.263745e-02 4.544570e-02 2.764795e-02 -4.277857e-04 2.328747e-02 -1.691671e-02 -5.848617e-03 -1.617160e-02 5.744163e-04
<VARIANCE> 39
 9.420524e+01 2.334275e+01 3.197729e+01 8.088293e+01 5.285715e+01 3.204032e+01 2.618333e+01 3.345604e+01 4.594986e+01 2.762136e+01 2.551950e+01 1.870371e+01 6.706224e-02 7.727165e+00 2.263572e+00 1.299044e+00 7.859241e+00 4.121026e+00 2.637635e+00 2.293998e+00 2.910032e+00 4.401966e+00 3.210875e+00 2.034009e+00 1.797867e+00 1.000000e-02 9.958066e-01 4.535924e-01 2.384260e-01 9.572461e-01 6.084858e-01 4.800195e-01 4.229964e-01 5.577690e-01 6.655969e-01 5.471461e-01 3.422866e-01 3.242090e-01 1.000000e-02
<GCONST> 1.081018e+02
<STATE> 3
<MEAN> 39
 3.893462e+00 -2.590341e+00 -1.020567e+01 -2.223101e+01 -1.282270e+01 2.563809e+00 3.055930e+00 -7.333673e+00 -3.314907e+00 -5.123735e+00 -3.813442e+00 -4.743923e+00 7.771688e-01 7.634788e-02 -3.044296e-01 -1.216264e-01 4.361962e-01 3.673920e-01 -2.514204e-01 -1.505286e-02 3.624758e-01 2.330476e-01 -8.368640e-02 1.621747e-01 -2.754126e-02 -9.251731e-03 -5.176906e-02 -6.892522e-03 -2.856126e-03 1.591534e-01 8.390649e-02 -9.045301e-02 -6.888060e-02 4.369086e-02 -2.400973e-02 -3.382383e-02 -6.155543e-03 4.520232e-02 -2.638328e-03
<VARIANCE> 39
 5.044467e+00 2.697800e+01 3.122012e+01 1.104908e+02 1.090857e+02 8.388097e+01 4.519114e+01 1.056224e+02 2.461695e+02 1.045519e+02 8.415808e+01 4.023099e+01 1.000000e-02 1.597138e-01 5.339409e-01 4.879063e-01 2.254005e+00 1.470919e+00 1.969238e+00 1.474166e+00 1.940664e+00 2.418584e+00 1.838348e+00 1.863990e+00 1.510571e+00 1.000000e-02 4.122216e-02 6.809569e-02 7.598945e-02 2.553199e-01 2.524943e-01 2.363303e-01 2.157696e-01 2.995436e-01 3.807926e-01 3.055418e-01 3.043050e-01 2.714387e-01 1.000000e-02
<GCONST> 8.905061e+01
<STATE> 4
<MEAN> 39
 -2.148435e+00 -7.557040e+00 -8.633586e+00 -4.238743e+00 -4.876132e-01 -8.407503e+00 -4.859078e+00 -1.033528e+00 -3.936570e+00 -8.226512e+00 -1.478124e+00 -1.429721e+00 3.109824e-01 -6.582153e-01 4.253887e-02 3.977979e-01 3.298986e-01 3.448931e-01 9.048188e-02 -8.033215e-02 -7.930011e-02 -3.283771e-02 -9.468126e-02 5.850264e-02 2.117880e-02 -2.960600e-02 8.740079e-04 3.624322e-02 1.100669e-02 -6.299644e-02 -6.902347e-02 6.253832e-02 2.811229e-02 -4.525721e-02 -5.973905e-03 5.103153e-02 2.440378e-02 -4.575273e-02 8.116750e-04
<VARIANCE> 39
 4.100000e+01 2.659454e+01 6.509788e+01 6.140685e+01 2.691249e+01 1.232133e+02 5.085608e+01 3.582495e+01 5.962318e+01 4.771005e+01 3.082878e+01 2.453188e+01 6.343945e-02 5.331169e-01 1.000634e+00 1.184786e+00 1.814896e+00 1.624932e+00 2.041599e+00 2.020506e+00 1.929932e+00 2.409572e+00 2.350016e+00 1.801118e+00 1.739853e+00 1.000000e-02 6.795881e-02 1.472531e-01 1.903376e-01 2.375683e-01 2.426643e-01 2.895601e-01 3.553284e-01 3.401791e-01 3.688329e-01 3.521935e-01 3.093261e-01 3.381332e-01 1.000000e-02
<GCONST> 9.399814e+01
<TRANSP> 5
 0.000000e+00 1.000000e+00 0.000000e+00 0.000000e+00 0.000000e+00
 0.000000e+00 9.517241e-01 4.827586e-02 0.000000e+00 0.000000e+00
 0.000000e+00 0.000000e+00 9.553571e-01 4.464285e-02 0.000000e+00
 0.000000e+00 0.000000e+00 0.000000e+00 9.516575e-01 4.834254e-02
 0.000000e+00 0.000000e+00 0.000000e+00 0.000000e+00 0.000000e+00
<ENDHMM>
