~o
<STREAMINFO> 1 39
<VECSIZE> 39<NULLD><MFCC_E_D_A><DIAGC>
~h "nine"
<BEGINHMM>
<NUMSTATES> 5
<STATE> 2
<MEAN> 39
 -6.841937e-01 -2.037719e+00 2.485550e+00 -3.411300e+00 -7.740826e+00 -8.810039e+00 -8.121874e+00 -1.141955e+01 -7.159471e+00 -7.408816e+00 -9.754284e+00 -7.139930e-01 5.920922e-01 3.929825e-01 -1.399643e+00 -7.446837e-01 -5.378994e-01 3.838405e-01 9.589464e-02 -7.251956e-02 2.616828e-01 4.524986e-01 -2.677366e-01 -7.731249e-01 -2.147586e-01 5.061214e-02 -1.781699e-01 -2.628102e-01 -1.862569e-01 -6.375820e-02 2.582589e-01 2.639774e-01 4.527190e-02 1.352453e-01 8.473602e-02 -3.696385e-02 1.252642e-01 -7.823675e-02 -7.195651e-03
<VARIANCE> 39
 1.990340e+01 7.849091e+01 4.982872e+01 4.714854e+01 8.601365e+01 9.134077e+01 6.896878e+01 8.008955e+01 8.939960e+01 3.617057e+01 8.222550e+01 5.604815e+01 5.471735e-02 2.254909e+00 5.892182e+00 5.285110e+00 3.509673e+00 7.838626e+00 4.829288e+00 4.648013e+00 8.547093e+00 4.690561e+00 2.349805e+00 3.552184e+00 4.224199e+00 1.000000e-02 2.992107e-01 8.485461e-01 7.920387e-01 6.529317e-01 8.926526e-01 6.119313e-01 9.108209e-01 1.446108e+00 8.657205e-01 4.183037e-01 5.645351e-01 6.497767e-01 1.000000e-02
<GCONST> 1.223331e+02
<STATE> 3
<MEAN> 39
 -9.732819e-01 -1.986525e+01 -7.713480e+00 -8.801113e+00 3.098505e+00 -5.292487e-01 -7.105377e+00 -6.918729e+00 -1.424763e+00 -9.737705e+00 -9.228125e+00 -7.999054e+00 7.963795e-01 -4.077966e-02 -2.366013e-02 4.616123e-01 3.552741e-02 -5.223671e-01 -1.211789e-01 4.166389e-01 2.438139e-01 -2.673484e-01 -8.274765e-02 1.960894e-01 6.304251e-02 -6.643091e-03 -1.224709e-02 1.526196e-01 1.535960e-01 9.416896e-03 -2.228971e-01 -1.185423e-01 1.127446e-01 -6.042853e-03 -6.930715e-02 9.276597e-02 -9.331063e-03 5.107820e-02 -1.879473e-03
<VARIANCE> 39
 5.948048e+00 1.707500e+01 2.507604e+01 2.444412e+01 5.639320e+01 1.245507e+02 6.931398e+01 5.583319e+01 1.062374e+02 3.777711e+01 5.630071e+01 4.849187e+01 1.000000e-02 2.072064e-01 5.490181e-01 1.231686e+00 8.912088e-01 2.246528e+00 2.262302e+00 2.109826e+00 2.571168e+00 1.253941e+00 1.259795e+00 1.485986e+00 1.725462e+00 1.000000e-02 3.352145e-02 1.155520e-01 9.654964e-02 1.340680e-01 2.426185e-01 2.932455e-01 2.868935e-01 3.929508e-01 2.416555e-01 2.908717e-01 2.589277e-01 2.402791e-01 1.000000e-02
<GCONST> 8.470462e+01
<STATE> 4
<MEAN> 39
 -5.660943e+00 -5.607723e+00 4.341794e+00 -5.083301e+00 -8.045434e+00 -3.817436e+00 -3.004317e+00 -6.992597e+00 -6.286616e+00 -6.113076e+00 -6.245890e+00 -3.944129e+00 4.043592e-01 -2.787084e-01 5.214794e-01 -6.346913e-02 2.266281e-01 2.379350e-01 7.988387e-02 -1.251701e-01 -1.564080e-01 4.272020e-02 1.291755e-01 2.668840e-01 5.896385e-02 -2.461662e-02 1.283827e-02 -3.629461e-02 -6.529186e-02 1.479555e-02 9.193642e-02 -7.341869e-04 -4.739812e-02 1.438269e-02 4.404910e-02 -3.166668e-02 -1.228459e-02 -2.202074e-04 1.809652e-04
<VARIANCE> 39
 1.479366e+01 4.358174e+01 3.178438e+01 7.482532e+01 5.173855e+01 5.234249e+01 5.044182e+01 5.229304e+01 5.188443e+01 3.795513e+01 4.245285e+01 2.255233e+01 6.563891e-02 5.212775e-01 1.507976e+00 1.570250e+00 1.660674e+00 2.366018e+00 1.981455e+00 2.939678e+00 2.866092e+00 1.995257e+00 2.522064e+00 2.172162e+00 1.721259e+00 1.000000e-02 7.681035e-02 1.628552e-01 1.831803e-01 2.327881e-01 3.120776e-01 3.304780e-01 5.367195e-01 4.139170e-01 3.303688e-01 3.611941e-01 3.668058e-01 3.254005e-01 1.000000e-02
<GCONST> 9.598247e+01
<TRANSP> 5
 0.000000e+00 1.000000e+00 0.000000e+00 0.000000e+00 0.000000e+00
 0.000000e+00 9.225664e-01 7.743363e-02 0.000000e+00 0.000000e+00
 0.000000e+00 0.000000e+00 9.459876e-01 5.401235e-02 0.000000e+00
 0.000000e+00 0.000000e+00 0.000000e+00 9.647887e-01 3.521127e-02
 0.000000e+00 0.000000e+00 0.000000e+00 0.000000e+00 0.000000e+00
<ENDHMM>
