~o
<STREAMINFO> 1 39
<VECSIZE> 39<NULLD><MFCC_E_D_A><DIAGC>
~h "one"
<BEGINHMM>
<NUMSTATES> 5
<STATE> 2
<MEAN> 39
 1.966522e+00 1.821655e+00 -2.510950e+00 -1.430714e+01 -8.569252e+00 -3.666434e+00 -4.651027e+00 -4.301808e+00 -4.941962e+00 -6.578190e+00 -3.961974e+00 -5.305961e+00 5.709845e-01 6.021765e-01 -5.201093e-01 -6.456369e-01 -1.658914e+00 -1.466917e-01 1.032210e+00 3.778208e-01 -6.904384e-02 2.366963e-03 -1.008606e-01 -3.042567e-01 -1.520542e-01 5.197366e-02 -2.258068e-01 -3.158333e-01 -8.550486e-02 1.129424e-01 3.002066e-01 1.484128e-01 6.718132e-02 -7.101687e-02 -3.995283e-02 -3.692807e-02 -1.837610e-02 2.091127e-02 -6.186681e-03
<VARIANCE> 39
 3.958136e+01 4.348027e+01 4.153402e+01 1.548910e+02 9.218349e+01 7.811067e+01 7.157291e+01 6.503528e+01 8.253264e+01 3.418422e+01 5.967009e+01 2.474404e+01 7.584931e-02 3.179068e+00 4.718009e+00 2.276689e+00 4.171093e+00 7.889914e+00 5.354005e+00 3.664739e+00 4.314014e+00 4.918156e+00 3.705734e+00 1.982906e+00 2.730763e+00 1.000000e-02 3.550866e-01 5.183030e-01 3.846280e-01 7.408980e-01 8.971963e-01 9.033824e-01 5.850729e-01 6.606127e-01 7.921504e-01 6.899679e-01 3.588595e-01 5.335913e-01 1.000000e-02
<GCONST> 1.183668e+02
<STATE> 3
<MEAN> 39
 -6.353196e-01 -1.466963e+01 -8.316197e+00 -1.566599e+01 1.689460e+00 -5.164174e-01 -4.149116e+00 -6.531903e+00 -5.433264e+00 -6.443158e+00 -9.943551e+00 -5.755320e+00 7.817451e-01 -1.571557e-01 -5.729827e-02 4.192311e-01 1.373506e+00 4.383282e-02 -1.096104e+00 -3.529598e-01 8.962761e-03 4.418784e-02 1.697772e-01 -4.526112e-01 2.459444e-01 -1.120194e-02 6.030171e-02 2.568848e-01 1.094099e-01 5.593168e-02 -1.858555e-01 -3.976218e-02 -2.296714e-02 -7.399959e-02 2.346262e-03 1.976278e-02 5.351563e-02 5.448202e-02 -1.515211e-03
<VARIANCE> 39
 5.790943e+00 1.953402e+01 2.231570e+01 7.023041e+01 7.549570e+01 1.801816e+02 6.222134e+01 1.078393e+02 1.508899e+02 5.767202e+01 9.261201e+01 5.474696e+01 1.454829e-02 3.458683e-01 2.128650e+00 9.606791e-01 1.013156e+00 3.187085e+00 2.040993e+00 2.032113e+00 3.383918e+00 1.845909e+00 2.363582e+00 1.604725e+00 1.976439e+00 1.000000e-02 3.490372e-02 1.019934e-01 1.209380e-01 1.695624e-01 2.571700e-01 4.024095e-01 3.213215e-01 5.050502e-01 2.964987e-01 4.277284e-01 2.555799e-01 2.845602e-01 1.000000e-02
<GCONST> 9.405099e+01
<STATE> 4
<MEAN> 39
 -3.779594e+00 -2.652781e+00 2.811507e+00 5.886779e-01 -2.142983e+00 -5.167747e+00 -5.031041e+00 -7.993655e+00 -5.843348e+00 -9.573236e+00 -6.074849e+00 -2.765955e+00 3.879503e-01 -3.743818e-01 1.768715e-01 1.957543e-03 3.007851e-02 1.209837e-01 2.914240e-01 1.134508e-01 6.239012e-02 -7.656678e-02 -1.100033e-01 4.665460e-01 -3.934916e-02 -2.680337e-02 -1.444379e-02 -8.110444e-02 -7.032867e-02 -7.490692e-02 2.269573e-02 -3.683714e-03 6.798736e-03 1.033228e-01 2.983997e-02 1.612560e-02 -6.231014e-03 -3.308127e-02 8.095118e-05
<VARIANCE> 39
 1.985864e+01 1.716085e+01 1.985386e+01 3.060802e+01 4.734143e+01 7.327271e+01 4.158519e+01 4.345193e+01 5.228466e+01 4.907089e+01 4.845196e+01 3.659564e+01 6.594239e-02 4.570443e-01 1.092865e+00 1.384676e+00 1.386435e+00 1.551213e+00 1.838780e+00 2.255570e+00 2.736525e+00 2.036880e+00 1.987911e+00 2.054343e+00 1.758049e+00 1.000000e-02 6.391906e-02 1.234629e-01 1.713394e-01 2.309018e-01 2.386916e-01 3.205674e-01 3.873096e-01 4.097949e-01 3.443775e-01 3.724356e-01 3.632430e-01 3.290256e-01 1.000000e-02
<GCONST> 9.181847e+01
<TRANSP> 5
 0.000000e+00 1.000000e+00 0.000000e+00 0.000000e+00 0.000000e+00
 0.000000e+00 9.287169e-01 7.128309e-02 0.000000e+00 0.000000e+00
 0.000000e+00 0.000000e+00 9.422442e-01 5.775577e-02 0.000000e+00
 0.000000e+00 0.000000e+00 0.000000e+00 9.599543e-01 4.004577e-02
 0.000000e+00 0.000000e+00 0.000000e+00 0.000000e+00 0.000000e+00
<ENDHMM>
