~o
<STREAMINFO> 1 39
<VECSIZE> 39<NULLD><MFCC_E_D_A><DIAGC>
~h "seven"
<BEGINHMM>
<NUMSTATES> 5
<STATE> 2
<MEAN> 39
 -2.212436e+01 1.693916e+00 -9.297851e+00 3.250123e+00 -3.754537e+00 -5.125125e+00 -9.141790e-01 -5.480306e+00 -2.229820e+00 -3.806736e+00 -1.288062e+00 -1.252950e+00 3.928029e-01 4.070808e-01 -4.021867e-01 -4.700063e-02 -2.365406e-01 -5.672442e-01 -4.802106e-01 -6.168957e-02 9.804763e-02 1.674740e-01 -4.800909e-02 -4.868189e-01 1.302360e-01 3.848979e-02 1.575345e-01 -1.921056e-01 5.161805e-02 -1.271838e-01 1.938139e-02 3.745180e-02 5.590596e-03 6.793424e-02 -3.069002e-03 -5.397278e-02 -5.918196e-02 -5.448164e-02 3.183148e-05
<VARIANCE> 39
 8.542839e+01 5.190494e+01 4.769571e+01 3.645694e+01 4.399020e+01 5.250797e+01 2.664701e+01 2.296758e+01 3.033206e+01 2.515497e+01 3.144459e+01 1.600737e+01 5.017378e-02 7.539815e+00 4.660208e+00 2.408613e+00 3.386986e+00 3.244487e+00 4.274059e+00 3.128167e+00 2.278274e+00 2.816184e+00 2.142846e+00 3.018652e+00 1.673098e+00 1.000000e-02 8.165272e-01 4.331634e-01 3.615039e-01 3.784138e-01 5.863358e-01 8.103762e-01 6.150674e-01 4.571162e-01 4.401491e-01 3.799141e-01 5.180648e-01 3.190547e-01 1.000000e-02
<GCONST> 1.073915e+02
<STATE> 3
<MEAN> 39
 -6.860356e-01 -9.698466e+00 -1.185755e+00 -6.787897e+00 -6.940136e+00 -1.350734e+01 -6.305648e+00 -4.213485e+00 -1.208100e+00 -4.947764e+00 -1.003754e+01 -2.574556e+00 6.881329e-01 1.263938e-01 3.239322e-01 3.347514e-01 2.262259e-01 1.547168e-01 1.741524e-01 -1.862362e-01 -2.400996e-01 -1.408812e-01 -1.834378e-02 7.962686e-02 -1.126993e-01 -8.211164e-03 -5.827275e-02 9.974162e-02 6.303109e-03 6.539854e-02 2.031340e-02 -4.437156e-03 -3.402479e-02 -3.028393e-02 -1.776916e-02 3.977826e-03 6.790959e-02 1.436914e-02 -2.241097e-03
<VARIANCE> 39
 8.949630e+00 4.734178e+01 4.288184e+01 6.621870e+01 4.694214e+01 1.092948e+02 6.904893e+01 6.777593e+01 1.319959e+02 6.195972e+01 7.372067e+01 8.759677e+01 1.373946e-02 3.303009e-01 1.585222e+00 7.802932e-01 2.014870e+00 1.998090e+00 1.935699e+00 2.691904e+00 3.422699e+00 3.167798e+00 2.439342e+00 2.233253e+00 2.237553e+00 1.000000e-02 7.627674e-02 2.444440e-01 1.281761e-01 3.231519e-01 2.971339e-01 3.555200e-01 4.735513e-01 5.201597e-01 5.566239e-01 4.462098e-01 4.223522e-01 3.303379e-01 1.000000e-02
<GCONST> 9.981109e+01
<STATE> 4
<MEAN> 39
 -5.220789e+00 -1.236652e+00 3.096070e+00 5.488316e-01 -1.297707e+00 -5.290607e+00 -6.492893e+00 -6.554436e+00 -4.754230e+00 -7.556502e+00 -3.063036e+00 -3.850492e+00 2.763982e-01 -6.104985e-01 -1.923037e-01 -4.797239e-01 -2.503632e-01 4.937595e-01 3.830160e-01 3.279857e-01 3.805709e-01 -7.945483e-02 -8.449924e-02 4.292901e-01 2.430355e-02 -3.561206e-02 1.383455e-02 -4.305235e-02 -3.210425e-02 -4.146890e-02 -5.451860e-02 -1.228078e-02 -1.410155e-03 -1.636462e-03 1.178792e-02 3.432867e-02 -5.141913e-02 2.570251e-02 1.062160e-03
<VARIANCE> 39
 1.502974e+01 1.199149e+01 2.351741e+01 4.215689e+01 2.739190e+01 4.102808e+01 3.672377e+01 3.120538e+01 2.737202e+01 2.813383e+01 2.201863e+01 1.796026e+01 5.275150e-02 3.771571e-01 8.206785e-01 9.361785e-01 9.283870e-01 1.310770e+00 1.555007e+00 1.554871e+00 1.849915e+00 1.856526e+00 1.860212e+00 1.759714e+00 1.436121e+00 1.000000e-02 6.598193e-02 1.055314e-01 1.428701e-01 1.699158e-01 2.115359e-01 2.743422e-01 3.212353e-01 3.457890e-01 3.360331e-01 3.369339e-01 2.969563e-01 2.537106e-01 1.000000e-02
<GCONST> 8.244151e+01
<TRANSP> 5
 0.000000e+00 1.000000e+00 0.000000e+00 0.000000e+00 0.000000e+00
 0.000000e+00 9.531459e-01 4.685408e-02 0.000000e+00 0.000000e+00
 0.000000e+00 0.000000e+00 9.695917e-01 3.040834e-02 0.000000e+00
 0.000000e+00 0.000000e+00 0.000000e+00 9.351852e-01 6.481481e-02
 0.000000e+00 0.000000e+00 0.000000e+00 0.000000e+00 0.000000e+00
<ENDHMM>
