~o
<STREAMINFO> 1 39
<VECSIZE> 39<NULLD><MFCC_E_D_A><DIAGC>
~h "six"
<BEGINHMM>
<NUMSTATES> 5
<STATE> 2
<MEAN> 39
 -2.479226e+01 2.257297e+00 -9.513458e+00 4.484764e+00 -2.411539e+00 -3.776037e+00 -6.089414e-02 -5.536791e+00 -3.818473e+00 -2.608451e+00 -9.834140e-01 -1.638327e+00 3.421991e-01 -1.398441e-01 1.483864e-01 2.131872e-02 1.209605e-01 -3.747056e-01 -2.841959e-01 -1.441954e-01 -1.541942e-01 -5.467923e-02 3.382666e-02 -6.664126e-02 8.777511e-02 2.603773e-02 3.219608e-01 -1.421697e-01 1.764712e-01 -1.266751e-01 -1.561710e-01 -1.018853e-01 -1.458229e-01 8.404251e-03 -2.795226e-02 -2.808395e-02 -4.820063e-02 3.587400e-02 1.756930e-03
<VARIANCE> 39
 4.851381e+01 6.323840e+01 3.937444e+01 2.845615e+01 3.561451e+01 3.069798e+01 2.738879e+01 2.336619e+01 2.706147e+01 2.193550e+01 2.606887e+01 1.535503e+01 3.491282e-02 4.981979e+00 2.467332e+00 2.686442e+00 2.309555e+00 3.510314e+00 3.117353e+00 2.713546e+00 2.287762e+00 2.452831e+00 1.898085e+00 2.176877e+00 1.745938e+00 1.000000e-02 4.813221e-01 3.360718e-01 3.098757e-01 3.752505e-01 6.929789e-01 5.606437e-01 5.258294e-01 5.007627e-01 4.839703e-01 3.753926e-01 4.872653e-01 3.658123e-01 1.000000e-02
<GCONST> 1.017417e+02
<STATE> 3
<MEAN> 39
 -7.796517e+00 -6.940534e+00 3.416955e+00 -3.324382e+00 -1.599734e+01 -1.453393e+01 -3.491912e+00 -7.238967e+00 -4.754180e+00 -2.289076e+00 -2.366760e+00 2.726725e-01 5.729630e-01 -2.550365e-01 -1.939904e-01 -3.409619e-01 2.819036e-01 2.780851e-02 -6.020859e-02 1.764072e-01 2.930329e-01 2.009494e-01 -1.264031e-02 6.577615e-02 3.642403e-02 -4.953457e-03 -3.565126e-01 1.826797e-01 -1.052432e-01 6.428748e-02 2.063985e-01 1.759018e-01 1.324032e-01 2.846726e-02 -1.458014e-02 -6.872276e-03 4.202300e-02 -2.162383e-02 -3.094083e-03
<VARIANCE> 39
 2.273469e+01 3.138083e+01 1.240317e+02 9.388598e+01 4.249229e+01 5.994690e+01 8.507375e+01 6.486050e+01 8.053024e+01 5.626733e+01 8.131065e+01 3.514932e+01 4.923998e-02 4.769644e+00 3.323630e+00 6.654654e+00 4.449268e+00 4.161525e+00 3.623399e+00 4.121414e+00 3.702696e+00 4.038535e+00 3.140906e+00 3.482624e+00 2.356169e+00 1.000000e-02 3.860300e-01 4.200513e-01 8.878884e-01 5.432116e-01 5.434805e-01 6.982964e-01 6.983129e-01 6.169863e-01 7.493351e-01 5.212370e-01 5.042492e-01 4.205750e-01 1.000000e-02
<GCONST> 1.176087e+02
<STATE> 4
<MEAN> 39
 -2.235647e+01 2.086885e+00 -9.528669e+00 3.960456e+00 -1.948781e+00 -6.009733e+00 -3.507472e-01 -3.946085e+00 -2.887935e+00 -4.434841e+00 -1.022024e+00 -6.918816e-01 3.192852e-01 3.552727e-01 3.364553e-02 2.775798e-01 -3.256598e-01 2.665001e-01 3.351798e-01 -9.155452e-02 -5.499585e-02 -1.478930e-01 -3.980441e-02 -3.404146e-04 -1.027657e-01 -1.580440e-02 1.121456e-01 -7.695071e-02 -6.546107e-03 -2.140935e-02 -1.807677e-02 -2.516713e-02 -3.319222e-02 -1.700010e-03 3.747969e-02 4.245929e-03 8.082347e-03 -2.051465e-02 -7.070389e-04
<VARIANCE> 39
 4.714441e+01 5.073133e+01 4.316130e+01 3.377889e+01 3.175696e+01 3.398003e+01 2.809633e+01 2.045473e+01 2.354964e+01 2.110718e+01 1.796325e+01 1.663391e+01 5.945462e-02 1.170177e+00 1.503842e+00 1.072959e+00 1.191083e+00 1.502775e+00 1.636815e+00 1.671404e+00 1.762314e+00 1.651379e+00 1.925239e+00 1.546058e+00 1.622760e+00 1.000000e-02 1.404331e-01 1.484507e-01 1.858824e-01 2.147094e-01 2.557729e-01 2.868356e-01 3.409550e-01 3.660509e-01 3.356428e-01 3.860543e-01 3.143407e-01 3.299498e-01 1.000000e-02
<GCONST> 8.872791e+01
<TRANSP> 5
 0.000000e+00 1.000000e+00 0.000000e+00 0.000000e+00 0.000000e+00
 0.000000e+00 9.540682e-01 4.593176e-02 0.000000e+00 0.000000e+00
 0.000000e+00 0.000000e+00 9.560853e-01 4.391468e-02 0.000000e+00
 0.000000e+00 0.000000e+00 0.000000e+00 9.669499e-01 3.305005e-02
 0.000000e+00 0.000000e+00 0.000000e+00 0.000000e+00 0.000000e+00
<ENDHMM>
