~o
<STREAMINFO> 1 39
<VECSIZE> 39<NULLD><MFCC_E_D_A><DIAGC>
~h "three"
<BEGINHMM>
<NUMSTATES> 5
<STATE> 2
<MEAN> 39
 -1.310513e+01 -4.837048e+00 -5.755032e+00 2.814130e+00 -4.707650e+00 -9.177094e+00 -6.055480e+00 -6.617929e+00 -3.128837e+00 -5.068603e+00 -8.031449e-01 -2.723725e+00 4.089385e-01 7.417888e-01 -5.552189e-01 2.828708e-01 1.796273e-01 -4.521674e-01 -5.375950e-01 -4.393300e-01 -2.408804e-02 -8.486009e-02 -1.546070e-02 -1.809415e-01 7.063598e-02 3.502088e-02 3.582759e-02 -7.227735e-02 1.165810e-01 -7.294366e-02 -3.144679e-02 1.776544e-03 1.123184e-04 7.560588e-02 -5.701390e-02 -2.375880e-02 1.333192e-02 4.255913e-02 -8.218866e-04
<VARIANCE> 39
 1.553866e+02 3.338892e+01 4.769905e+01 3.144213e+01 3.984956e+01 1.123633e+02 9.515008e+01 5.849657e+01 3.372594e+01 3.645148e+01 4.384391e+01 2.496741e+01 7.998499e-02 5.815216e+00 2.283765e+00 4.124842e+00 2.794105e+00 3.135578e+00 4.501419e+00 5.372972e+00 3.753670e+00 2.758634e+00 3.608699e+00 3.145461e+00 2.829792e+00 1.000000e-02 6.853164e-01 3.607016e-01 7.270761e-01 5.376459e-01 5.798989e-01 7.720810e-01 9.440432e-01 6.697049e-01 5.477798e-01 6.885341e-01 6.374029e-01 5.049656e-01 1.000000e-02
<GCONST> 1.164107e+02
<STATE> 3
<MEAN> 39
 -2.320076e+00 -9.587213e+00 1.416359e+01 -5.684179e+00 -1.767582e+01 -1.560698e+01 -9.843330e+00 -8.136995e+00 -1.005271e+01 -3.172296e+00 4.792712e-01 -1.350260e+00 7.156556e-01 -5.084211e-01 7.896868e-01 7.857870e-01 -5.786771e-01 -1.396850e-01 4.162651e-01 2.010030e-01 -3.491394e-01 -3.508462e-01 7.852687e-02 -1.057509e-01 -2.382267e-02 -1.016576e-02 8.810792e-03 7.959480e-02 -1.426614e-01 6.248105e-02 1.407127e-01 6.251365e-02 -3.250201e-02 -4.516601e-02 8.641915e-02 -5.765262e-03 -5.781482e-02 -7.984283e-02 -1.867986e-03
<VARIANCE> 39
 1.705210e+01 6.454733e+01 8.687126e+01 1.073098e+02 2.772782e+01 1.492904e+02 8.502709e+01 8.886525e+01 1.290304e+02 1.706632e+02 9.686317e+01 4.760823e+01 1.076803e-02 5.185382e-01 9.887979e-01 1.732197e+00 1.719133e+00 1.570091e+00 1.433005e+00 2.132796e+00 2.539460e+00 3.180202e+00 2.630654e+00 1.660876e+00 1.794617e+00 1.000000e-02 5.257094e-02 1.320660e-01 1.739318e-01 2.221821e-01 2.223645e-01 2.360309e-01 3.215052e-01 3.871637e-01 4.039701e-01 3.208137e-01 2.432233e-01 2.919221e-01 1.000000e-02
<GCONST> 9.797115e+01
<STATE> 4
<MEAN> 39
 -8.486029e+00 -1.872644e-01 7.614548e+00 -5.066279e+00 -6.334750e+00 -3.836329e+00 -8.425049e+00 -9.760652e+00 -5.777687e+00 -5.604920e+00 -5.028636e+00 -1.779884e+00 3.042932e-01 -1.960596e-01 -1.971027e-01 -9.351709e-01 2.429269e-01 6.762805e-01 2.542682e-01 1.793286e-01 4.070976e-01 2.853442e-01 -1.252829e-01 2.223767e-01 -6.766199e-02 -2.950839e-02 1.482689e-03 -3.178696e-02 2.846552e-02 -7.327395e-03 -5.871734e-02 -3.196245e-02 6.037848e-03 9.517751e-03 -4.336969e-02 3.183450e-02 5.374452e-02 2.788407e-02 1.166339e-03
<VARIANCE> 39
 9.931766e+00 3.339314e+01 6.020351e+01 5.994201e+01 4.487452e+01 3.140127e+01 4.526561e+01 3.757814e+01 2.522010e+01 3.287660e+01 7.626328e+01 1.984886e+01 7.385531e-02 3.792299e-01 1.007122e+00 1.472991e+00 1.297629e+00 1.818584e+00 1.700955e+00 2.269433e+00 1.726653e+00 2.093968e+00 2.013302e+00 2.191528e+00 1.735055e+00 1.000000e-02 6.843342e-02 1.093341e-01 1.824022e-01 1.967441e-01 2.693417e-01 2.740006e-01 3.390841e-01 3.118894e-01 3.621361e-01 3.564171e-01 3.956046e-01 3.403370e-01 1.000000e-02
<GCONST> 9.041540e+01
<TRANSP> 5
 0.000000e+00 1.000000e+00 0.000000e+00 0.000000e+00 0.000000e+00
 0.000000e+00 9.569191e-01 4.308094e-02 0.000000e+00 0.000000e+00
 0.000000e+00 0.000000e+00 9.498481e-01 5.015197e-02 0.000000e+00
 0.000000e+00 0.000000e+00 0.000000e+00 9.508929e-01 4.910714e-02
 0.000000e+00 0.000000e+00 0.000000e+00 0.000000e+00 0.000000e+00
<ENDHMM>
