~o
<STREAMINFO> 1 39
<VECSIZE> 39<NULLD><MFCC_E_D_A><DIAGC>
~h "two"
<BEGINHMM>
<NUMSTATES> 5
<STATE> 2
<MEAN> 39
 -1.626753e+01 -4.085806e+00 -2.360510e+00 -4.678250e+00 -2.995044e+00 -9.225892e+00 -2.563214e+00 -1.383664e+00 -5.162132e+00 -2.732424e+00 -1.183832e+00 -1.478585e+00 5.301886e-01 5.573888e-01 -2.010636e-01 4.895799e-01 1.295583e-01 -5.540698e-01 -6.624698e-01 -5.715852e-01 -1.065885e-01 -1.472910e-01 -3.841475e-02 -3.058419e-01 1.207096e-01 3.884879e-02 1.240488e-01 -4.826419e-02 7.761639e-02 1.823270e-02 -1.184302e-02 2.316482e-02 -8.943026e-02 -2.414778e-02 -1.092509e-02 -6.120129e-02 -8.875600e-03 -1.038878e-02 -3.004570e-03
<VARIANCE> 39
 1.313862e+02 4.808965e+01 3.849113e+01 3.096848e+01 4.145459e+01 6.379564e+01 6.441134e+01 4.508067e+01 2.944358e+01 3.458186e+01 4.204716e+01 1.678619e+01 8.312034e-02 6.994426e+00 3.702609e+00 3.507518e+00 2.931355e+00 3.379806e+00 3.694635e+00 3.689623e+00 4.238182e+00 2.756872e+00 3.933181e+00 2.953744e+00 1.938699e+00 1.000000e-02 9.387686e-01 6.831071e-01 5.539680e-01 5.366077e-01 6.266302e-01 6.199804e-01 5.138845e-01 7.461440e-01 5.381519e-01 6.996781e-01 5.370359e-01 3.370625e-01 1.000000e-02
<GCONST> 1.138933e+02
<STATE> 3
<MEAN> 39
 -3.698695e-01 -7.550489e+00 3.291352e+00 -1.806205e+00 -6.851092e+00 -1.722945e+01 -1.503262e+01 -7.271785e+00 -5.655073e+00 -1.952067e+00 -4.672658e+00 -2.698788e+00 6.900654e-01 2.694178e-01 3.099265e-01 -3.111245e-01 -7.598561e-02 3.167472e-01 3.957494e-01 -1.153927e-01 -3.732333e-01 -1.159789e-02 1.541930e-01 1.165570e-01 -1.695061e-01 -8.896865e-03 -3.205968e-02 9.226269e-02 -3.073424e-02 -7.211431e-03 2.110917e-02 6.528692e-02 1.128539e-01 5.549429e-03 -7.052642e-03 -5.493888e-02 2.334881e-02 2.697648e-03 -1.579450e-03
<VARIANCE> 39
 1.207827e+01 3.877715e+01 3.658453e+01 5.062992e+01 4.511281e+01 1.838157e+02 1.112399e+02 8.313364e+01 8.345942e+01 7.089449e+01 1.172329e+02 5.122989e+01 1.236602e-02 2.126801e-01 6.541913e-01 5.719839e-01 8.510882e-01 1.507320e+00 1.424652e+00 1.573764e+00 1.762651e+00 1.950649e+00 1.669867e+00 1.380653e+00 1.321608e+00 1.000000e-02 3.216195e-02 7.691099e-02 1.030292e-01 1.317599e-01 2.608438e-01 2.572915e-01 2.678510e-01 2.487515e-01 2.559472e-01 2.753567e-01 2.326995e-01 2.146809e-01 1.000000e-02
<GCONST> 8.680270e+01
<STATE> 4
<MEAN> 39
 -3.532212e+00 2.809120e-01 9.107830e-01 -2.170048e+00 -3.378121e-01 -4.491637e+00 -7.397572e+00 -8.327802e+00 -6.255902e+00 -5.858884e+00 -9.746910e-01 -2.839650e+00 2.905061e-01 -6.657478e-01 -2.009370e-01 -1.090117e-01 2.205344e-02 4.328335e-02 2.697853e-01 6.142408e-01 5.403439e-01 1.064789e-01 -3.890366e-01 1.135571e-01 9.633129e-02 -3.327275e-02 -9.283045e-03 -7.691325e-02 -2.807066e-02 -5.108391e-03 -2.826346e-02 -5.092319e-02 -6.123332e-02 1.468546e-02 2.624620e-02 5.495623e-02 -4.053957e-02 -1.379612e-02 4.189033e-04
<VARIANCE> 39
 2.935400e+01 3.400340e+01 3.331267e+01 2.666358e+01 1.938043e+01 3.176674e+01 3.995325e+01 3.703502e+01 2.069537e+01 2.565108e+01 4.305833e+01 1.831542e+01 5.456692e-02 6.843873e-01 9.518668e-01 1.231065e+00 1.453235e+00 1.827454e+00 2.088172e+00 2.102575e+00 1.909758e+00 1.627932e+00 1.756793e+00 1.903835e+00 1.387273e+00 1.000000e-02 1.069638e-01 1.179660e-01 1.917679e-01 2.476248e-01 3.255446e-01 3.125068e-01 3.218284e-01 3.468019e-01 3.065526e-01 3.039252e-01 3.327220e-01 2.593562e-01 1.000000e-02
<GCONST> 8.810379e+01
<TRANSP> 5
 0.000000e+00 1.000000e+00 0.000000e+00 0.000000e+00 0.000000e+00
 0.000000e+00 9.447950e-01 5.520505e-02 0.000000e+00 0.000000e+00
 0.000000e+00 0.000000e+00 9.557522e-01 4.424778e-02 0.000000e+00
 0.000000e+00 0.000000e+00 0.000000e+00 9.429967e-01 5.700326e-02
 0.000000e+00 0.000000e+00 0.000000e+00 0.000000e+00 0.000000e+00
<ENDHMM>
