~o
<STREAMINFO> 1 39
<VECSIZE> 39<NULLD><MFCC_E_D_A><DIAGC>
~h "zero"
<BEGINHMM>
<NUMSTATES> 5
<STATE> 2
<MEAN> 39
 -1.094555e+01 5.332963e+00 7.422397e-01 1.666052e+00 -8.098330e+00 -1.214549e+01 -5.963514e+00 -9.033676e+00 -6.645183e+00 -5.119195e+00 -5.362783e+00 -1.791151e+00 5.304087e-01 3.242613e-01 -7.020505e-01 4.516231e-01 -1.615689e-01 -7.360842e-01 -5.703923e-01 -9.314863e-02 1.758159e-01 -7.107110e-02 1.721662e-01 -1.132720e-01 2.553207e-01 3.894906e-02 4.045371e-02 -2.287017e-01 -2.522659e-02 -4.131193e-02 2.079457e-02 8.243905e-02 1.350014e-02 1.299718e-01 7.047182e-02 -3.801463e-02 6.757846e-02 -2.143056e-02 -3.577845e-03
<VARIANCE> 39
 4.126585e+01 1.020611e+02 6.280418e+01 1.251962e+02 9.041057e+01 7.416123e+01 4.842604e+01 4.425098e+01 5.085999e+01 5.438197e+01 4.628979e+01 4.609031e+01 6.431653e-02 2.724410e+00 7.168537e+00 3.169340e+00 5.489406e+00 4.350104e+00 3.117335e+00 3.216325e+00 3.792125e+00 2.620257e+00 4.453940e+00 3.320580e+00 3.001055e+00 1.000000e-02 4.387899e-01 6.441955e-01 4.948597e-01 6.639704e-01 6.442608e-01 5.323249e-01 6.667380e-01 6.246088e-01 4.844584e-01 7.383322e-01 5.985519e-01 4.848770e-01 1.000000e-02
<GCONST> 1.182146e+02
<STATE> 3
<MEAN> 39
 3.642063e+00 -1.477320e+01 -5.372313e+00 -1.911178e+00 -1.073054e+01 -1.209035e+01 -9.864906e+00 -3.917398e+00 -1.041390e+00 -1.467594e+00 1.188701e+00 -4.307770e+00 7.287306e-01 2.423811e-01 1.420818e-01 -6.145546e-01 -2.703841e-01 2.366825e-01 6.248179e-01 2.932106e-02 -3.440379e-01 1.853955e-01 3.204762e-01 2.627527e-01 -2.275161e-01 -7.260846e-03 -5.483100e-02 1.294012e-01 2.228728e-02 -4.150818e-02 5.228192e-02 2.720947e-02 2.496497e-02 -6.052310e-02 -7.716307e-02 3.071023e-02 -3.205846e-02 5.847858e-02 -8.976004e-04
<VARIANCE> 39
 1.243192e+01 1.324596e+01 1.071238e+02 6.309360e+01 5.593578e+01 1.521296e+02 6.055164e+01 7.252766e+01 6.805270e+01 6.648005e+01 1.119783e+02 5.429349e+01 1.045807e-02 5.388406e-01 1.092282e+00 1.474344e+00 2.090579e+00 2.114548e+00 2.249372e+00 2.467137e+00 2.626040e+00 2.699592e+00 2.117340e+00 1.883433e+00 2.598303e+00 1.000000e-02 4.116406e-02 1.331816e-01 1.358970e-01 1.788583e-01 3.252496e-01 3.305033e-01 3.146746e-01 4.033509e-01 4.199032e-01 3.350144e-01 3.041959e-01 3.740228e-01 1.000000e-02
<GCONST> 9.639765e+01
<STATE> 4
<MEAN> 39
 -3.073280e+00 -2.764636e+00 -4.735962e+00 -9.411544e+00 -3.315716e+00 -1.047746e+00 -4.390773e+00 -9.219206e+00 -5.916459e+00 -2.979932e+00 6.393343e-01 -2.452648e+00 3.113565e-01 -7.038123e-01 2.268855e-01 3.974808e-01 4.393724e-01 3.292294e-01 -1.786413e-01 1.398608e-01 4.606204e-01 -1.652724e-01 -5.659316e-01 -1.266958e-01 2.110506e-01 -3.271212e-02 -1.767538e-03 -8.653597e-02 -4.075355e-03 9.251207e-02 -4.371056e-02 -4.690059e-02 -4.084894e-04 3.052346e-02 7.033112e-02 1.003070e-02 -2.739800e-03 -4.952998e-02 1.671113e-04
<VARIANCE> 39
 3.056480e+01 1.118496e+01 3.115604e+01 6.756147e+01 2.656550e+01 3.651590e+01 6.530212e+01 4.199978e+01 3.621008e+01 4.491789e+01 5.726389e+01 2.673782e+01 5.376297e-02 6.715015e-01 1.226272e+00 1.034488e+00 1.979977e+00 2.005078e+00 1.881963e+00 1.910177e+00 2.022164e+00 2.317501e+00 2.055318e+00 1.995116e+00 1.696634e+00 1.000000e-02 1.216198e-01 1.365792e-01 1.832338e-01 3.007140e-01 3.030039e-01 3.749965e-01 3.068372e-01 3.462555e-01 3.836978e-01 3.760913e-01 3.959424e-01 2.953042e-01 1.000000e-02
<GCONST> 9.303928e+01
<TRANSP> 5
 0.000000e+00 1.000000e+00 0.000000e+00 0.000000e+00 0.000000e+00
 0.000000e+00 9.458205e-01 5.417956e-02 0.000000e+00 0.000000e+00
 0.000000e+00 0.000000e+00 9.646107e-01 3.538928e-02 0.000000e+00
 0.000000e+00 0.000000e+00 0.000000e+00 9.459042e-01 5.409583e-02
 0.000000e+00 0.000000e+00 0.000000e+00 0.000000e+00 0.000000e+00
<ENDHMM>
